{"learner":{"attributes":{"best_iteration":"40","best_score":"0.6752316404634447"},"feature_names":[],"feature_types":[],"gradient_booster":{"model":{"cats":{"enc":[],"feature_segments":[],"sorted_idx":[]},"gbtree_model_param":{"num_parallel_tree":"1","num_trees":"61"},"iteration_indptr":[0,1,2,3,4,5,6,7,8,9,10,11,12,13,14,15,16,17,18,19,20,21,22,23,24,25,26,27,28,29,30,31,32,33,34,35,36,37,38,39,40,41,42,43,44,45,46,47,48,49,50,51,52,53,54,55,56,57,58,59,60,61],"tree_info":[0,0,0,0,0,0,0,0,0,0,0,0,0,0,0,0,0,0,0,0,0,0,0,0,0,0,0,0,0,0,0,0,0,0,0,0,0,0,0,0,0,0,0,0,0,0,0,0,0,0,0,0,0,0,0,0,0,0,0,0,0],"trees":[{"base_weights":[-2.8168399E-2,4.2342644E-2,-1.631604E-1,-3.504822E-1,5.4729617E-1,9.675679E-3,-3.814907E-2,3.620044E-2,-1.112959E-3],"categories":[],"categories_nodes":[],"categories_segments":[],"categories_sizes":[],"default_left":[0,0,0,0,0,0,0,0,0],"id":0,"left_children":[1,-1,3,5,7,-1,-1,-1,-1],"loss_changes":[1.0898083E1,0E0,1.2082495E1,1.734647E1,2.6529684E0,0E0,0E0,0E0,0E0],"parents":[2147483647,0,0,2,2,3,3,4,4],"right_children":[2,-1,4,6,8,-1,-1,-1,-1],"split_conditions":[-1.9033E-2,4.2342644E-2,-4.8108E-2,-1.81889E-1,3.181E-3,9.675679E-3,-3.814907E-2,3.620044E-2,-1.112959E-3],"split_indices":[0,0,3,5,0,0,0,0,0],"split_type":[0,0,0,0,0,0,0,0,0],"sum_hessian":[8.7201416E1,7.1406884E0,8.006073E1,6.647469E1,1.3586032E1,2.8767206E1,3.770749E1,1.0674089E1,2.9119434E0],"tree_param":{"num_deleted":"0","num_feature":"12","num_nodes":"9","size_leaf_vector":"1"}},{"base_weights":[-9.727642E-3,-2.4756046E-1,5.8556485E-1,2.6232013E-1,-9.835323E-1,-1.7944163E-2,8.369573E-1,-2.5342057E-2,2.6402837E-2,-5.762258E-2,1.010739E-2,5.4144867E-2,-3.2819756E-3],"categories":[],"categories_nodes":[],"categories_segments":[],"categories_sizes":[],"default_left":[0,0,0,0,0,0,0,0,0,0,0,0,0],"id":1,"left_children":[1,3,5,7,9,-1,11,-1,-1,-1,-1,-1,-1],"loss_changes":[1.3025365E1,2.7716032E1,8.098135E0,1.0272963E1,8.101534E0,0E0,6.4091406E0,0E0,0E0,0E0,0E0,0E0,0E0],"parents":[2147483647,0,0,1,1,2,2,3,3,4,4,6,6],"right_children":[2,4,6,8,10,-1,12,-1,-1,-1,-1,-1,-1],"split_conditions":[-4.3395E-2,-3.15908E-1,3.40938E-1,-6.202E-2,1.16972E-1,-1.7944163E-2,2.6055E-2,-2.5342057E-2,2.6402837E-2,-5.762258E-2,1.010739E-2,5.4144867E-2,-3.2819756E-3],"split_indices":[4,3,2,8,7,0,4,0,0,0,0,0,0],"split_type":[0,0,0,0,0,0,0,0,0,0,0,0,0],"sum_hessian":[8.426789E1,6.3499092E1,2.0768797E1,3.860955E1,2.4889542E1,3.080398E0,1.7688398E1,7.7828436E0,3.0826708E1,2.2646679E1,2.2428625E0,1.3986482E1,3.7019172E0],"tree_param":{"num_deleted":"0","num_feature":"12","num_nodes":"13","size_leaf_vector":"1"}},{"base_weights":[8.000625E-2,5.070154E-1,-2.2960132E-1,-5.2836575E-3,7.192923E-1,-4.1549766E-1,4.3433285E-1,1.2781905E-2,-1.6570864E-2,-0E0,3.883911E-2,7.5040176E-3,-5.1156815E-2,3.9260965E-2,-1.4043133E-2],"categories":[],"categories_nodes":[],"categories_segments":[],"categories_sizes":[],"default_left":[0,0,0,0,0,0,0,0,0,0,0,0,0,0,0],"id":2,"left_children":[1,3,5,7,9,11,13,-1,-1,-1,-1,-1,-1,-1,-1],"loss_changes":[1.26675005E1,5.132619E0,7.530978E0,1.8129104E0,1.9543095E0,1.738423E1,4.8818254E0,0E0,0E0,0E0,0E0,0E0,0E0,0E0,0E0],"parents":[2147483647,0,0,1,1,2,2,3,3,4,4,5,5,6,6],"right_children":[2,4,6,8,10,12,14,-1,-1,-1,-1,-1,-1,-1,-1],"split_conditions":[-4.725E-2,-7.0192E-2,-4.8108E-2,-9.0837E-2,-9.24567E-1,-3.38109E-1,-2.1624E-2,1.2781905E-2,-1.6570864E-2,-0E0,3.883911E-2,7.5040176E-3,-5.1156815E-2,3.9260965E-2,-1.4043133E-2],"split_indices":[8,10,3,10,5,3,3,0,0,0,0,0,0,0,0],"split_type":[0,0,0,0,0,0,0,0,0,0,0,0,0,0,0],"sum_hessian":[8.431588E1,3.5456425E1,4.8859455E1,1.0435823E1,2.5020601E1,4.081007E1,8.049383E0,4.6945324E0,5.741291E0,1.0403453E0,2.3980257E1,2.2234228E1,1.8575842E1,6.009635E0,2.039748E0],"tree_param":{"num_deleted":"0","num_feature":"12","num_nodes":"15","size_leaf_vector":"1"}},{"base_weights":[-1.1119259E-3,-2.350652E-1,5.20563E-1,3.9919287E-1,-5.746898E-1,-1.1530969E-2,7.523276E-1,3.9357934E-2,-7.941084E-3,-4.0358093E-2,1.1265193E-2,4.85166E-2,-1.8353323E-2],"categories":[],"categories_nodes":[],"categories_segments":[],"categories_sizes":[],"default_left":[0,0,0,0,0,0,0,0,0,0,0,0,0],"id":3,"left_children":[1,3,5,7,9,-1,11,-1,-1,-1,-1,-1,-1],"loss_changes":[1.1339488E1,1.5769227E1,6.2936406E0,6.733191E0,1.0186311E1,0E0,8.172316E0,0E0,0E0,0E0,0E0,0E0,0E0],"parents":[2147483647,0,0,1,1,2,2,3,3,4,4,6,6],"right_children":[2,4,6,8,10,-1,12,-1,-1,-1,-1,-1,-1],"split_conditions":[-4.3395E-2,-8.84432E-1,3.40938E-1,-3.3968E-2,1.753636E0,-1.1530969E-2,1.2785E-2,3.9357934E-2,-7.941084E-3,-4.0358093E-2,1.1265193E-2,4.85166E-2,-1.8353323E-2],"split_indices":[4,4,2,9,2,0,0,0,0,0,0,0,0],"split_type":[0,0,0,0,0,0,0,0,0,0,0,0,0],"sum_hessian":[8.523659E1,6.2066025E1,2.3170565E1,2.0311798E1,4.1754227E1,4.451759E0,1.8718805E1,1.1827475E1,8.484324E0,3.3286606E1,8.467621E0,1.6972525E1,1.7462796E0],"tree_param":{"num_deleted":"0","num_feature":"12","num_nodes":"13","size_leaf_vector":"1"}},{"base_weights":[-0E0,4.1038E-2,-1.2811032E-1,-4.941698E-1,9.9467866E-2,-3.745366E-2,6.118096E-4,4.207108E-2,-1.2331646E-2],"categories":[],"categories_nodes":[],"categories_segments":[],"categories_sizes":[],"default_left":[0,0,0,0,0,0,0,0,0],"id":4,"left_children":[1,-1,3,5,7,-1,-1,-1,-1],"loss_changes":[1.0552377E1,0E0,7.9974074E0,5.478426E0,1.6252415E1,0E0,0E0,0E0,0E0],"parents":[2147483647,0,0,2,2,3,3,4,4],"right_children":[2,-1,4,6,8,-1,-1,-1,-1],"split_conditions":[-1.9033E-2,4.1038E-2,-3.902E-3,1.232127E0,1.2E-2,-3.745366E-2,6.118096E-4,4.207108E-2,-1.2331646E-2],"split_indices":[0,0,0,2,1,0,0,0,0],"split_type":[0,0,0,0,0,0,0,0,0],"sum_hessian":[9.1823975E1,8.513007E0,8.331097E1,3.1377392E1,5.1933575E1,2.0591318E1,1.0786074E1,1.51625185E1,3.6771057E1],"tree_param":{"num_deleted":"0","num_feature":"12","num_nodes":"9","size_leaf_vector":"1"}},{"base_weights":[-0E0,4.3180015E-2,-1.4519538E-1,-3.7889308E-1,4.608816E-1,5.43271E-3,-3.2886107E-2,4.06682E-2,-2.094136E-2],"categories":[],"categories_nodes":[],"categories_segments":[],"categories_sizes":[],"default_left":[0,0,0,0,0,0,0,0,0],"id":5,"left_children":[1,-1,3,5,7,-1,-1,-1,-1],"loss_changes":[1.1554128E1,0E0,1.2034211E1,9.229246E0,9.277798E0,0E0,0E0,0E0,0E0],"parents":[2147483647,0,0,2,2,3,3,4,4],"right_children":[2,-1,4,6,8,-1,-1,-1,-1],"split_conditions":[-1.9033E-2,4.3180015E-2,-3.5521E-2,-4.725E-2,5.087E-3,5.43271E-3,-3.2886107E-2,4.06682E-2,-2.094136E-2],"split_indices":[0,0,4,8,0,0,0,0,0],"split_type":[0,0,0,0,0,0,0,0,0],"sum_hessian":[8.262685E1,8.248353E0,7.4378494E1,5.622343E1,1.8155066E1,2.0261065E1,3.5962368E1,1.4042378E1,4.112687E0],"tree_param":{"num_deleted":"0","num_feature":"12","num_nodes":"9","size_leaf_vector":"1"}},{"base_weights":[-2.549277E-3,-2.8760567E-1,4.9036756E-1,-5.335806E-2,-0E0,-0E0,6.3758034E-1,1.2605399E-2,-3.9930474E-2,2.0371106E-2,-2.7985666E-2,-0E0,3.4669634E-2],"categories":[],"categories_nodes":[],"categories_segments":[],"categories_sizes":[],"default_left":[0,0,0,0,0,0,0,0,0,0,0,0,0],"id":6,"left_children":[1,3,5,-1,7,9,11,-1,-1,-1,-1,-1,-1],"loss_changes":[1.3344769E1,1.328886E1,2.8341684E0,0E0,1.165794E1,3.9522376E0,1.5157881E0,0E0,0E0,0E0,0E0,0E0,0E0],"parents":[2147483647,0,0,1,1,2,2,4,4,5,5,6,6],"right_children":[2,4,6,-1,8,10,12,-1,-1,-1,-1,-1,-1],"split_conditions":[1.6105E-2,-6.206E-2,-5.556E-2,-5.335806E-2,1.93727E-1,-6.5927E-2,2.11469E-1,1.2605399E-2,-3.9930474E-2,2.0371106E-2,-2.7985666E-2,-0E0,3.4669634E-2],"split_indices":[11,6,9,0,6,9,2,0,0,0,0,0,0],"split_type":[0,0,0,0,0,0,0,0,0,0,0,0,0],"sum_hessian":[8.639883E1,5.7346436E1,2.9052393E1,1.1197258E1,4.6149178E1,6.937546E0,2.2114847E1,3.706189E1,9.087289E0,4.1925764E0,2.7449694E0,1.0366869E0,2.107816E1],"tree_param":{"num_deleted":"0","num_feature":"12","num_nodes":"13","size_leaf_vector":"1"}},{"base_weights":[-2.4401577E-2,-2.3509914E-1,4.578476E-1,1.4754364E-1,-7.367139E-1,6.324306E-1,-5.5899876E-3,-2.6711842E-2,2.0933805E-2,1.9137848E-2,-4.683957E-2,3.8348407E-2,-0E0],"categories":[],"categories_nodes":[],"categories_segments":[],"categories_sizes":[],"default_left":[0,0,0,0,0,0,0,0,0,0,0,0,0],"id":7,"left_children":[1,3,5,7,9,11,-1,-1,-1,-1,-1,-1,-1],"loss_changes":[9.586826E0,1.4232198E1,3.6585307E0,8.720447E0,9.401831E0,2.3896112E0,0E0,0E0,0E0,0E0,0E0,0E0,0E0],"parents":[2147483647,0,0,1,1,2,2,3,3,4,4,5,5],"right_children":[2,4,6,8,10,12,-1,-1,-1,-1,-1,-1,-1],"split_conditions":[-4.3395E-2,-3.02903E-1,1.3596E-2,-5.5238E-2,-6.9571E-2,-2.1624E-2,-5.5899876E-3,-2.6711842E-2,2.0933805E-2,1.9137848E-2,-4.683957E-2,3.8348407E-2,-0E0],"split_indices":[4,3,4,9,8,3,0,0,0,0,0,0,0],"split_type":[0,0,0,0,0,0,0,0,0,0,0,0,0],"sum_hessian":[8.6245865E1,6.3248363E1,2.29975E1,3.675023E1,2.6498133E1,1.8524572E1,4.472928E0,8.026606E0,2.8723623E1,2.5677595E0,2.3930374E1,1.5057625E1,3.466948E0],"tree_param":{"num_deleted":"0","num_feature":"12","num_nodes":"13","size_leaf_vector":"1"}},{"base_weights":[-7.39421E-2,6.8253756E-1,-2.0556466E-1,-0E0,4.082404E-2,-7.065461E-1,1.1334081E-1,-4.4969033E-2,1.1443942E-2,1.6123876E-2,-3.219111E-2],"categories":[],"categories_nodes":[],"categories_segments":[],"categories_sizes":[],"default_left":[0,0,0,0,0,0,0,0,0,0,0],"id":8,"left_children":[1,3,5,-1,-1,7,9,-1,-1,-1,-1],"loss_changes":[9.194527E0,1.9956832E0,1.4047176E1,0E0,0E0,7.7769794E0,9.111476E0,0E0,0E0,0E0,0E0],"parents":[2147483647,0,0,1,1,2,2,5,5,6,6],"right_children":[2,4,6,-1,-1,8,10,-1,-1,-1,-1],"split_conditions":[-1.9033E-2,-1.60087E-1,-3.902E-3,-0E0,4.082404E-2,-1.8926E-2,2.49703E-1,-4.4969033E-2,1.1443942E-2,1.6123876E-2,-3.219111E-2],"split_indices":[0,6,0,0,0,4,6,0,0,0,0],"split_type":[0,0,0,0,0,0,0,0,0,0,0],"sum_hessian":[8.508728E1,8.382854E0,7.670443E1,1.0370989E0,7.345755E0,2.8690857E1,4.8013573E1,2.4833263E1,3.8575935E0,4.0906075E1,7.1074986E0],"tree_param":{"num_deleted":"0","num_feature":"12","num_nodes":"11","size_leaf_vector":"1"}},{"base_weights":[3.0828165E-4,-1.4648369E-1,4.4744352E-1,2.549495E-1,-7.237998E-1,6.3888E-1,-5.930662E-3,2.5318567E-2,-2.5374433E-2,-4.67025E-2,7.385081E-3,3.8685232E-2,-0E0],"categories":[],"categories_nodes":[],"categories_segments":[],"categories_sizes":[],"default_left":[0,0,0,0,0,0,0,0,0,0,0,0,0],"id":9,"left_children":[1,3,5,7,9,11,-1,-1,-1,-1,-1,-1,-1],"loss_changes":[6.762614E0,1.817966E1,3.7181997E0,9.987501E0,7.3460636E0,1.8577862E0,0E0,0E0,0E0,0E0,0E0,0E0,0E0],"parents":[2147483647,0,0,1,1,2,2,3,3,4,4,5,5],"right_children":[2,4,6,8,10,12,-1,-1,-1,-1,-1,-1,-1],"split_conditions":[-4.3395E-2,-3.02903E-1,1.3596E-2,1.6244E-2,1.7943E-2,-2.1624E-2,-5.930662E-3,2.5318567E-2,-2.5374433E-2,-4.67025E-2,7.385081E-3,3.8685232E-2,-0E0],"split_indices":[4,3,4,11,11,3,0,0,0,0,0,0,0],"split_type":[0,0,0,0,0,0,0,0,0,0,0,0,0],"sum_hessian":[8.845406E1,6.743956E1,2.1014511E1,4.0404396E1,2.703516E1,1.6543102E1,4.4714074E0,3.2633884E1,7.770512E0,2.2415901E1,4.6192575E0,1.2792598E1,3.7505045E0],"tree_param":{"num_deleted":"0","num_feature":"12","num_nodes":"13","size_leaf_vector":"1"}},{"base_weights":[1.196534E-2,4.0283892E-2,-9.919235E-2,2.9012614E-1,-3.6641493E-1,3.148166E-2,-4.848971E-3,-2.7671555E-2,1.1932026E-2],"categories":[],"categories_nodes":[],"categories_segments":[],"categories_sizes":[],"default_left":[0,0,0,0,0,0,0,0,0],"id":10,"left_children":[1,-1,3,5,7,-1,-1,-1,-1],"loss_changes":[9.524828E0,0E0,9.66364E0,5.660802E0,7.2382407E0,0E0,0E0,0E0,0E0],"parents":[2147483647,0,0,2,2,3,3,4,4],"right_children":[2,-1,4,6,8,-1,-1,-1,-1],"split_conditions":[-1.9033E-2,4.0283892E-2,-4.9208E-2,1.017879E0,-4.8108E-2,3.148166E-2,-4.848971E-3,-2.7671555E-2,1.1932026E-2],"split_indices":[0,0,8,2,3,0,0,0,0],"split_type":[0,0,0,0,0,0,0,0,0],"sum_hessian":[9.042128E1,8.375147E0,8.2046135E1,3.1696514E1,5.034962E1,1.6593792E1,1.5102722E1,4.0049957E1,1.0299663E1],"tree_param":{"num_deleted":"0","num_feature":"12","num_nodes":"9","size_leaf_vector":"1"}},{"base_weights":[2.8353658E-2,-1.6766827E-1,5.8922577E-1,2.7660307E-1,-7.9859966E-1,3.5600513E-2,-1.028591E-2,-8.4319053E-4,3.575056E-2,-4.6851348E-2,8.174571E-3],"categories":[],"categories_nodes":[],"categories_segments":[],"categories_sizes":[],"default_left":[0,0,0,0,0,0,0,0,0,0,0],"id":11,"left_children":[1,3,5,7,9,-1,-1,-1,-1,-1,-1],"loss_changes":[1.0826114E1,2.1070818E1,3.7543898E0,6.3536954E0,5.652008E0,0E0,0E0,0E0,0E0,0E0,0E0],"parents":[2147483647,0,0,1,1,2,2,3,3,4,4],"right_children":[2,4,6,8,10,-1,-1,-1,-1,-1,-1],"split_conditions":[-4.3395E-2,-3.02903E-1,1.2785E-2,-8.71967E-1,9.556E-3,3.5600513E-2,-1.028591E-2,-8.4319053E-4,3.575056E-2,-4.6851348E-2,8.174571E-3],"split_indices":[4,3,0,3,0,0,0,0,0,0,0],"split_type":[0,0,0,0,0,0,0,0,0,0,0],"sum_hessian":[8.514273E1,6.436859E1,2.077414E1,3.8489304E1,2.5879286E1,1.953622E1,1.2379185E0,2.4569422E1,1.3919884E1,2.364663E1,2.232658E0],"tree_param":{"num_deleted":"0","num_feature":"12","num_nodes":"11","size_leaf_vector":"1"}},{"base_weights":[9.4285734E-2,-1.2454141E-1,6.4087063E-1,2.0809738E-1,-7.552149E-1,4.0735133E-2,-8.267447E-3,2.4360428E-2,-2.3654843E-2,-4.652501E-2,8.049852E-3],"categories":[],"categories_nodes":[],"categories_segments":[],"categories_sizes":[],"default_left":[0,0,0,0,0,0,0,0,0,0,0],"id":12,"left_children":[1,3,5,7,9,-1,-1,-1,-1,-1,-1],"loss_changes":[1.1140139E1,1.4743663E1,5.045192E0,9.671729E0,5.4037714E0,0E0,0E0,0E0,0E0,0E0,0E0],"parents":[2147483647,0,0,1,1,2,2,3,3,4,4],"right_children":[2,4,6,8,10,-1,-1,-1,-1,-1,-1],"split_conditions":[-4.3395E-2,-1.98021E-1,5.087E-3,8.89E-4,9.556E-3,4.0735133E-2,-8.267447E-3,2.4360428E-2,-2.3654843E-2,-4.652501E-2,8.049852E-3],"split_indices":[4,4,0,0,0,0,0,0,0,0,0],"split_type":[0,0,0,0,0,0,0,0,0,0,0],"sum_hessian":[8.048566E1,5.8925728E1,2.1559927E1,3.973351E1,1.9192219E1,1.8712915E1,2.847013E0,3.0236385E1,9.497121E0,1.6960833E1,2.231387E0],"tree_param":{"num_deleted":"0","num_feature":"12","num_nodes":"11","size_leaf_vector":"1"}},{"base_weights":[9.700583E-2,-2.2826451E-1,3.201506E-1,-7.003067E-1,4.4673253E-2,7.101029E-1,-1.8230796E-1,-4.5309078E-2,1.579131E-2,5.937565E-2,-1.3673608E-2,-4.03284E-2,1.6539128E-2],"categories":[],"categories_nodes":[],"categories_segments":[],"categories_sizes":[],"default_left":[0,0,0,0,0,0,0,0,0,0,0,0,0],"id":13,"left_children":[1,3,5,7,-1,9,11,-1,-1,-1,-1,-1,-1],"loss_changes":[6.7006454E0,2.2047865E1,1.1936306E1,8.053496E0,0E0,1.8064207E1,1.0412189E1,0E0,0E0,0E0,0E0,0E0,0E0],"parents":[2147483647,0,0,1,1,2,2,3,3,5,5,6,6],"right_children":[2,4,6,8,-1,10,12,-1,-1,-1,-1,-1,-1],"split_conditions":[6.5752E-2,1.318334E0,1.017879E0,1.5602E-2,4.4673253E-2,1.6244E-2,1.4027E-2,-4.5309078E-2,1.579131E-2,5.937565E-2,-1.3673608E-2,-4.03284E-2,1.6539128E-2],"split_indices":[7,2,2,11,0,11,11,0,0,0,0,0,0],"split_type":[0,0,0,0,0,0,0,0,0,0,0,0,0],"sum_hessian":[8.101762E1,3.109517E1,4.992245E1,2.3834959E1,7.2602105E0,2.8065258E1,2.1857193E1,2.1087627E1,2.7473316E0,1.8880821E1,9.184438E0,9.449445E0,1.2407747E1],"tree_param":{"num_deleted":"0","num_feature":"12","num_nodes":"13","size_leaf_vector":"1"}},{"base_weights":[-1.17638506E-1,-2.917287E-1,3.8166618E-1,-6.7902243E-1,4.9235754E-2,-1.2410998E-2,3.5102814E-2,-5.4878708E-2,1.4679632E-2,1.6726065E-2,-3.1311706E-2],"categories":[],"categories_nodes":[],"categories_segments":[],"categories_sizes":[],"default_left":[0,0,0,0,0,0,0,0,0,0,0],"id":14,"left_children":[1,3,5,7,9,-1,-1,-1,-1,-1,-1],"loss_changes":[7.8007736E0,9.628532E0,5.8645716E0,1.5858626E1,8.243267E0,0E0,0E0,0E0,0E0,0E0,0E0],"parents":[2147483647,0,0,1,1,2,2,3,3,4,4],"right_children":[2,4,6,8,10,-1,-1,-1,-1,-1,-1],"split_conditions":[1.7943E-2,6.5752E-2,-1.96319E-1,7.86848E-1,2.956E-3,-1.2410998E-2,3.5102814E-2,-5.4878708E-2,1.4679632E-2,1.6726065E-2,-3.1311706E-2],"split_indices":[11,7,3,2,0,0,0,0,0,0,0],"split_type":[0,0,0,0,0,0,0,0,0,0,0],"sum_hessian":[7.937247E1,6.1878883E1,1.7493582E1,2.8023317E1,3.3855568E1,5.22545E0,1.2268131E1,1.9861822E1,8.161495E0,2.6617762E1,7.237805E0],"tree_param":{"num_deleted":"0","num_feature":"12","num_nodes":"11","size_leaf_vector":"1"}},{"base_weights":[1.07836975E-2,-2.017159E-1,3.6154285E-1,3.2540816E-1,-5.164976E-1,-2.7148166E-1,6.218577E-1,-6.365894E-3,3.193116E-2,2.3847552E-2,-3.4029286E-2,1.2883107E-2,-3.30295E-2,3.0693915E-3,4.627088E-2],"categories":[],"categories_nodes":[],"categories_segments":[],"categories_sizes":[],"default_left":[0,0,0,0,0,0,0,0,0,0,0,0,0,0,0],"id":15,"left_children":[1,3,5,7,9,11,13,-1,-1,-1,-1,-1,-1,-1,-1],"loss_changes":[7.1084213E0,1.0396704E1,7.2735925E0,4.176792E0,8.095938E0,3.9534478E0,3.6256638E0,0E0,0E0,0E0,0E0,0E0,0E0,0E0,0E0],"parents":[2147483647,0,0,1,1,2,2,3,3,4,4,5,5,6,6],"right_children":[2,4,6,8,10,12,14,-1,-1,-1,-1,-1,-1,-1,-1],"split_conditions":[1.4714E-2,1.2E-2,-7.0192E-2,-2.348E-3,-1.9033E-2,-9.348E-2,-8.5375E-2,-6.365894E-3,3.193116E-2,2.3847552E-2,-3.4029286E-2,1.2883107E-2,-3.30295E-2,3.0693915E-3,4.627088E-2],"split_indices":[11,1,10,0,0,10,6,0,0,0,0,0,0,0,0],"split_type":[0,0,0,0,0,0,0,0,0,0,0,0,0,0,0],"sum_hessian":[8.333227E1,5.144132E1,3.1890951E1,1.7982597E1,3.3458717E1,8.110976E0,2.3779974E1,7.2615323E0,1.07210655E1,2.5276623E0,3.0931057E1,3.0637336E0,5.047243E0,1.1623887E1,1.2156087E1],"tree_param":{"num_deleted":"0","num_feature":"12","num_nodes":"15","size_leaf_vector":"1"}},{"base_weights":[-3.1768043E-2,-2.579169E-1,3.088903E-1,-8.6042154E-1,2.3370243E-3,-2.7119595E-1,6.082936E-1,-0E0,-4.8202544E-2,3.728694E-2,-1.6107341E-2,6.4784563E-3,-2.4319565E-2,3.492969E-2,-2.9158785E-3],"categories":[],"categories_nodes":[],"categories_segments":[],"categories_sizes":[],"default_left":[0,0,0,0,0,0,0,0,0,0,0,0,0,0,0],"id":16,"left_children":[1,3,5,7,9,11,13,-1,-1,-1,-1,-1,-1,-1,-1],"loss_changes":[6.8120456E0,9.480196E0,7.0655575E0,2.0926027E0,1.1800059E1,1.8700868E0,2.3547926E0,0E0,0E0,0E0,0E0,0E0,0E0,0E0,0E0],"parents":[2147483647,0,0,1,1,2,2,3,3,4,4,5,5,6,6],"right_children":[2,4,6,8,10,12,14,-1,-1,-1,-1,-1,-1,-1,-1],"split_conditions":[1.8545E-2,-6.4358E-2,6.5752E-2,7.561E-3,-5.1417E-2,-4.0428E-2,1.50223E-1,-0E0,-4.8202544E-2,3.728694E-2,-1.6107341E-2,6.4784563E-3,-2.4319565E-2,3.492969E-2,-2.9158785E-3],"split_indices":[1,10,7,1,10,9,7,0,0,0,0,0,0,0,0],"split_type":[0,0,0,0,0,0,0,0,0,0,0,0,0,0,0],"sum_hessian":[7.8913826E1,4.992237E1,2.8991451E1,1.27401285E1,3.7182243E1,8.892856E0,2.0098597E1,1.3573403E0,1.1382789E1,1.0262112E1,2.692013E1,2.1784387E0,6.7144165E0,1.8810703E1,1.2878922E0],"tree_param":{"num_deleted":"0","num_feature":"12","num_nodes":"15","size_leaf_vector":"1"}},{"base_weights":[3.6295626E-2,2.3486163E-1,-3.0588368E-1,-8.597904E-2,5.585655E-1,-7.6176506E-1,2.4256526E-1,1.4896788E-2,-3.183797E-2,1.3664425E-3,4.672354E-2,-0E0,-4.1484255E-2,-1.2857953E-2,2.7639473E-2],"categories":[],"categories_nodes":[],"categories_segments":[],"categories_sizes":[],"default_left":[0,0,0,0,0,0,0,0,0,0,0,0,0,0,0],"id":17,"left_children":[1,3,5,7,9,11,13,-1,-1,-1,-1,-1,-1,-1,-1],"loss_changes":[6.251369E0,6.9664273E0,9.581552E0,8.270091E0,5.3390713E0,1.4355555E0,3.7304983E0,0E0,0E0,0E0,0E0,0E0,0E0,0E0,0E0],"parents":[2147483647,0,0,1,1,2,2,3,3,4,4,5,5,6,6],"right_children":[2,4,6,8,10,12,14,-1,-1,-1,-1,-1,-1,-1,-1],"split_conditions":[-4.7361E-2,-6.6172E-2,-4.3395E-2,6.0097E-2,8.7401E-2,4.87148E-1,3.40938E-1,1.4896788E-2,-3.183797E-2,1.3664425E-3,4.672354E-2,-0E0,-4.1484255E-2,-1.2857953E-2,2.7639473E-2],"split_indices":[10,10,4,6,6,2,2,0,0,0,0,0,0,0,0],"split_type":[0,0,0,0,0,0,0,0,0,0,0,0,0,0,0],"sum_hessian":[8.276471E1,5.521446E1,2.7550253E1,2.8022514E1,2.7191944E1,1.4978465E1,1.2571788E1,1.6795286E1,1.1227227E1,1.4592829E1,1.2599116E1,1.0516665E0,1.3926798E1,3.908148E0,8.663639E0],"tree_param":{"num_deleted":"0","num_feature":"12","num_nodes":"15","size_leaf_vector":"1"}},{"base_weights":[-1.3917172E-2,3.296118E-2,-1.4652099E-1,3.02507E-1,-3.1038615E-1,3.0406509E-2,-1.34313395E-2,-2.9733926E-2,1.0233502E-2],"categories":[],"categories_nodes":[],"categories_segments":[],"categories_sizes":[],"default_left":[0,0,0,0,0,0,0,0,0],"id":18,"left_children":[1,-1,3,5,7,-1,-1,-1,-1],"loss_changes":[7.9215293E0,0E0,6.34542E0,5.035363E0,1.015431E1,0E0,0E0,0E0,0E0],"parents":[2147483647,0,0,2,2,3,3,4,4],"right_children":[2,-1,4,6,8,-1,-1,-1,-1],"split_conditions":[-1.9033E-2,3.296118E-2,1.1397E-2,-2.86296E-1,1.6955E-2,3.0406509E-2,-1.34313395E-2,-2.9733926E-2,1.0233502E-2],"split_indices":[0,0,1,4,11,0,0,0,0],"split_type":[0,0,0,0,0,0,0,0,0],"sum_hessian":[8.407898E1,9.3281355E0,7.475084E1,1.7222982E1,5.752786E1,1.2148916E1,5.074067E0,3.7820755E1,1.9707102E1],"tree_param":{"num_deleted":"0","num_feature":"12","num_nodes":"9","size_leaf_vector":"1"}},{"base_weights":[-1.7402546E-2,2.604953E-1,-2.5144455E-1,-1.9304784E-1,5.101718E-1,3.3548146E-1,-3.7551147E-1,-2.2761438E-2,6.0698334E-3,3.1443145E-2,-1.1352116E-2,2.7659466E-2,-1.4851968E-3,1.6731407E-2,-2.5140066E-2],"categories":[],"categories_nodes":[],"categories_segments":[],"categories_sizes":[],"default_left":[0,0,0,0,0,0,0,0,0,0,0,0,0,0,0],"id":19,"left_children":[1,3,5,7,9,11,13,-1,-1,-1,-1,-1,-1,-1,-1],"loss_changes":[5.9088902E0,5.3162336E0,4.3950214E0,1.9568692E0,3.6061912E0,1.4134786E0,5.1671157E0,0E0,0E0,0E0,0E0,0E0,0E0,0E0,0E0],"parents":[2147483647,0,0,1,1,2,2,3,3,4,4,5,5,6,6],"right_children":[2,4,6,8,10,12,14,-1,-1,-1,-1,-1,-1,-1,-1],"split_conditions":[-4.725E-2,-7.0192E-2,-7.52145E-1,-3.004E-3,2.834497E0,-5.1417E-2,-7.743E-2,-2.2761438E-2,6.0698334E-3,3.1443145E-2,-1.1352116E-2,2.7659466E-2,-1.4851968E-3,1.6731407E-2,-2.5140066E-2],"split_indices":[8,10,5,0,2,10,10,0,0,0,0,0,0,0,0],"split_type":[0,0,0,0,0,0,0,0,0,0,0,0,0,0,0],"sum_hessian":[8.0954185E1,3.4797863E1,4.6156322E1,1.13355055E1,2.3462357E1,5.160952E0,4.0995373E1,6.6949286E0,4.640577E0,2.201007E1,1.4522855E0,3.3362617E0,1.8246903E0,3.7992485E0,3.7196125E1],"tree_param":{"num_deleted":"0","num_feature":"12","num_nodes":"15","size_leaf_vector":"1"}},{"base_weights":[3.0176107E-2,3.4065336E-2,-6.260197E-2,-4.30443E-1,1.5882388E-1,-3.0989526E-2,2.0274226E-2,2.3866182E-2,-1.8643787E-2],"categories":[],"categories_nodes":[],"categories_segments":[],"categories_sizes":[],"default_left":[0,0,0,0,0,0,0,0,0],"id":20,"left_children":[1,-1,3,5,7,-1,-1,-1,-1],"loss_changes":[6.240019E0,0E0,7.2590485E0,6.805575E0,9.9507E0,0E0,0E0,0E0,0E0],"parents":[2147483647,0,0,2,2,3,3,4,4],"right_children":[2,-1,4,6,8,-1,-1,-1,-1],"split_conditions":[-1.9033E-2,3.4065336E-2,-3.902E-3,-1.2798E-2,6.091E-3,-3.0989526E-2,2.0274226E-2,2.3866182E-2,-1.8643787E-2],"split_indices":[0,0,0,4,0,0,0,0,0],"split_type":[0,0,0,0,0,0,0,0,0],"sum_hessian":[8.4521614E1,7.929884E0,7.659173E1,2.8703978E1,4.7887753E1,2.5432327E1,3.2716506E0,3.144413E1,1.6443624E1],"tree_param":{"num_deleted":"0","num_feature":"12","num_nodes":"9","size_leaf_vector":"1"}},{"base_weights":[2.0172061E-2,2.7670112E-1,-2.3737529E-1,6.2433E-1,-2.256371E-1,-7.4397737E-1,3.698112E-2,4.2762917E-2,-1.0497623E-2,-3.1338807E-2,6.8525667E-3,-0E0,-4.570241E-2,-1.0421738E-2,1.8931203E-2],"categories":[],"categories_nodes":[],"categories_segments":[],"categories_sizes":[],"default_left":[0,0,0,0,0,0,0,0,0,0,0,0,0,0,0],"id":21,"left_children":[1,3,5,7,9,11,13,-1,-1,-1,-1,-1,-1,-1,-1],"loss_changes":[6.180499E0,9.543075E0,7.050357E0,7.52872E0,4.1582894E0,1.353775E0,3.2852435E0,0E0,0E0,0E0,0E0,0E0,0E0,0E0,0E0],"parents":[2147483647,0,0,1,1,2,2,3,3,4,4,5,5,6,6],"right_children":[2,4,6,8,10,12,14,-1,-1,-1,-1,-1,-1,-1,-1],"split_conditions":[-5.8945E-2,1.04011E-1,-1.09753E-1,-1.98021E-1,1.22103E-1,-1.544913E0,-9.8753E-2,4.2762917E-2,-1.0497623E-2,-3.1338807E-2,6.8525667E-3,-0E0,-4.570241E-2,-1.0421738E-2,1.8931203E-2],"split_indices":[10,7,4,4,7,4,5,0,0,0,0,0,0,0,0],"split_type":[0,0,0,0,0,0,0,0,0,0,0,0,0,0,0],"sum_hessian":[8.298102E1,4.3331635E1,3.964938E1,2.6068277E1,1.726336E1,1.2202897E1,2.7446484E1,2.1257227E1,4.8110504E0,7.7776484E0,9.485709E0,4.1857524E0,8.017145E0,1.5403802E1,1.2042681E1],"tree_param":{"num_deleted":"0","num_feature":"12","num_nodes":"15","size_leaf_vector":"1"}},{"base_weights":[3.6588858E-4,-2.364682E-1,2.6421273E-1,3.2617044E-1,-4.008417E-1,-9.9511206E-2,5.864476E-1,2.8952995E-2,-5.0474014E-3,2.1824825E-3,-3.1876158E-2,-1.9310659E-2,2.146965E-2,-9.712297E-3,3.9141014E-2],"categories":[],"categories_nodes":[],"categories_segments":[],"categories_sizes":[],"default_left":[0,0,0,0,0,0,0,0,0,0,0,0,0,0,0],"id":22,"left_children":[1,3,5,7,9,11,13,-1,-1,-1,-1,-1,-1,-1,-1],"loss_changes":[5.503426E0,4.814701E0,5.870569E0,1.9986293E0,4.7110896E0,4.3078055E0,5.2151203E0,0E0,0E0,0E0,0E0,0E0,0E0,0E0,0E0],"parents":[2147483647,0,0,1,1,2,2,3,3,4,4,5,5,6,6],"right_children":[2,4,6,8,10,12,14,-1,-1,-1,-1,-1,-1,-1,-1],"split_conditions":[1.3153E-2,8.867E-3,-5.2273E-2,-3.4834E-2,-1.0947E-2,-3.1477E-2,-3.40743E-1,2.8952995E-2,-5.0474014E-3,2.1824825E-3,-3.1876158E-2,-1.9310659E-2,2.146965E-2,-9.712297E-3,3.9141014E-2],"split_indices":[11,11,6,8,6,5,5,0,0,0,0,0,0,0,0],"split_type":[0,0,0,0,0,0,0,0,0,0,0,0,0,0,0],"sum_hessian":[7.762864E1,3.9184566E1,3.8444077E1,6.371172E0,3.2813393E1,1.822506E1,2.0219015E1,4.355153E0,2.016019E0,1.1350249E1,2.1463142E1,1.391942E1,4.305639E0,3.051069E0,1.7167948E1],"tree_param":{"num_deleted":"0","num_feature":"12","num_nodes":"15","size_leaf_vector":"1"}},{"base_weights":[5.697235E-2,3.1984705E-1,-1.3383979E-1,4.7537908E-1,-1.4150698E-1,2.2750648E-2,-7.1628684E-1,2.9761551E-2,-0E0,-2.244187E-2,5.340582E-3,2.3785012E-2,-1.4426417E-2,-4.038967E-2,-0E0],"categories":[],"categories_nodes":[],"categories_segments":[],"categories_sizes":[],"default_left":[0,0,0,0,0,0,0,0,0,0,0,0,0,0,0],"id":23,"left_children":[1,3,5,7,9,11,13,-1,-1,-1,-1,-1,-1,-1,-1],"loss_changes":[4.6855884E0,3.5126472E0,5.4105573E0,1.540915E0,1.514262E0,7.013581E0,1.0079098E0,0E0,0E0,0E0,0E0,0E0,0E0,0E0,0E0],"parents":[2147483647,0,0,1,1,2,2,3,3,4,4,5,5,6,6],"right_children":[2,4,6,8,10,12,14,-1,-1,-1,-1,-1,-1,-1,-1],"split_conditions":[-4.725E-2,1.697115E0,6.091E-3,1.9489E-2,1.4027E-2,-5.1417E-2,1.16972E-1,2.9761551E-2,-0E0,-2.244187E-2,5.340582E-3,2.3785012E-2,-1.4426417E-2,-4.038967E-2,-0E0],"split_indices":[8,2,0,11,11,10,7,0,0,0,0,0,0,0,0],"split_type":[0,0,0,0,0,0,0,0,0,0,0,0,0,0,0],"sum_hessian":[8.0437935E1,3.4612774E1,4.582516E1,2.7393417E1,7.2193575E0,3.8549076E1,7.2760844E0,2.001087E1,7.382547E0,3.2216508E0,3.9977067E0,1.5934252E1,2.2614822E1,6.196974E0,1.0791109E0],"tree_param":{"num_deleted":"0","num_feature":"12","num_nodes":"15","size_leaf_vector":"1"}},{"base_weights":[7.104422E-3,4.537257E-2,-1.3590823E-1,-2.976138E-1,4.4607747E-1,9.030985E-3,-2.4509087E-2,2.7969018E-2,-0E0],"categories":[],"categories_nodes":[],"categories_segments":[],"categories_sizes":[],"default_left":[0,0,0,0,0,0,0,0,0],"id":24,"left_children":[1,-1,3,5,7,-1,-1,-1,-1],"loss_changes":[1.2632737E1,0E0,7.9264193E0,6.8275633E0,1.3619728E0,0E0,0E0,0E0,0E0],"parents":[2147483647,0,0,2,2,3,3,4,4],"right_children":[2,-1,4,6,8,-1,-1,-1,-1],"split_conditions":[-1.9033E-2,4.537257E-2,-4.8108E-2,1.1397E-2,3.181E-3,9.030985E-3,-2.4509087E-2,2.7969018E-2,-0E0],"split_indices":[0,0,3,1,0,0,0,0,0],"split_type":[0,0,0,0,0,0,0,0,0],"sum_hessian":[8.23288E1,8.579846E0,7.374895E1,6.0969776E1,1.2779169E1,1.6100988E1,4.486879E1,1.0658875E1,2.1202939E0],"tree_param":{"num_deleted":"0","num_feature":"12","num_nodes":"9","size_leaf_vector":"1"}},{"base_weights":[4.973456E-2,-2.6939428E-1,1.9897498E-1,-3.8174104E-2,3.297594E-2,4.177192E-1,-1.4637971E-1,9.903617E-3,-1.4657497E-2,-4.662132E-3,2.9091125E-2,2.6331706E-2,-2.1972751E-2],"categories":[],"categories_nodes":[],"categories_segments":[],"categories_sizes":[],"default_left":[0,0,0,0,0,0,0,0,0,0,0,0,0],"id":25,"left_children":[1,3,5,-1,7,9,11,-1,-1,-1,-1,-1,-1],"loss_changes":[4.3915277E0,5.046647E0,5.488229E0,0E0,1.3225418E0,4.3545923E0,6.42303E0,0E0,0E0,0E0,0E0,0E0,0E0],"parents":[2147483647,0,0,1,1,2,2,4,4,5,5,6,6],"right_children":[2,4,6,-1,8,10,12,-1,-1,-1,-1,-1,-1],"split_conditions":[-6.206E-2,2.3593E-2,1.22817E-1,-3.8174104E-2,9.5464E-2,6.402E-2,4.4902E-2,9.903617E-3,-1.4657497E-2,-4.662132E-3,2.9091125E-2,2.6331706E-2,-2.1972751E-2],"split_indices":[6,1,6,0,7,7,7,0,0,0,0,0,0],"split_type":[0,0,0,0,0,0,0,0,0,0,0,0,0],"sum_hessian":[8.305804E1,2.3047726E1,6.001031E1,7.110716E0,1.5937011E1,3.787105E1,2.2139257E1,1.39198475E1,2.017163E0,8.249675E0,2.9621378E1,4.472337E0,1.7666922E1],"tree_param":{"num_deleted":"0","num_feature":"12","num_nodes":"13","size_leaf_vector":"1"}},{"base_weights":[4.9403626E-2,-3.1336474E-1,2.1014214E-1,1.6224474E-2,-5.161071E-1,-9.522869E-2,4.2018995E-1,-3.8314812E-2,-0E0,-2.8233806E-2,1.4076198E-2,1.2780245E-3,3.958201E-2],"categories":[],"categories_nodes":[],"categories_segments":[],"categories_sizes":[],"default_left":[0,0,0,0,0,0,0,0,0,0,0,0,0],"id":26,"left_children":[1,3,5,-1,7,9,11,-1,-1,-1,-1,-1,-1],"loss_changes":[5.2095766E0,4.435036E0,4.638289E0,0E0,3.339964E0,6.0779147E0,5.0707035E0,0E0,0E0,0E0,0E0,0E0,0E0],"parents":[2147483647,0,0,1,1,2,2,4,4,5,5,6,6],"right_children":[2,4,6,-1,8,10,12,-1,-1,-1,-1,-1,-1],"split_conditions":[-6.3615E-2,-1.225852E0,6.58986E-1,1.6224474E-2,-3.5521E-2,-3.1146E-1,1.3153E-2,-3.8314812E-2,-0E0,-2.8233806E-2,1.4076198E-2,1.2780245E-3,3.958201E-2],"split_indices":[6,4,2,0,4,4,11,0,0,0,0,0,0],"split_type":[0,0,0,0,0,0,0,0,0,0,0,0,0],"sum_hessian":[8.046512E1,2.1338236E1,5.9126884E1,3.2327368E0,1.8105497E1,2.3269566E1,3.585732E1,1.1168826E1,6.9366717E0,1.0431639E1,1.2837927E1,2.1282724E1,1.45745945E1],"tree_param":{"num_deleted":"0","num_feature":"12","num_nodes":"13","size_leaf_vector":"1"}},{"base_weights":[1.3653032E-2,-3.555317E-1,1.8497449E-1,-3.6835894E-2,-0E0,3.222096E-1,-3.3655146E-1,8.668083E-3,-1.5195729E-2,3.2067742E-2,-2.3094239E-3,9.388986E-3,-3.0579194E-2],"categories":[],"categories_nodes":[],"categories_segments":[],"categories_sizes":[],"default_left":[0,0,0,0,0,0,0,0,0,0,0,0,0],"id":27,"left_children":[1,3,5,-1,7,9,11,-1,-1,-1,-1,-1,-1],"loss_changes":[5.886511E0,4.5315285E0,5.323082E0,0E0,1.1246216E0,7.4583087E0,3.1445546E0,0E0,0E0,0E0,0E0,0E0,0E0],"parents":[2147483647,0,0,1,1,2,2,4,4,5,5,6,6],"right_children":[2,4,6,-1,8,10,12,-1,-1,-1,-1,-1,-1],"split_conditions":[-6.3615E-2,3.0478E-2,6.091E-3,-3.6835894E-2,-9.3468E-2,-5.0527E-2,-6.9571E-2,8.668083E-3,-1.5195729E-2,3.2067742E-2,-2.3094239E-3,9.388986E-3,-3.0579194E-2],"split_indices":[6,1,0,0,6,10,8,0,0,0,0,0,0],"split_type":[0,0,0,0,0,0,0,0,0,0,0,0,0],"sum_hessian":[8.5566216E1,2.356731E1,6.1998905E1,1.0002244E1,1.3565066E1,5.211392E1,9.884987E0,1.1882475E1,1.6825917E0,2.7393011E1,2.4720907E1,2.695839E0,7.1891484E0],"tree_param":{"num_deleted":"0","num_feature":"12","num_nodes":"13","size_leaf_vector":"1"}},{"base_weights":[-4.8161652E-2,-1.7402335E-1,4.3463513E-1,-6.6597694E-1,1.3257957E-1,-4.673015E-3,6.21314E-1,-4.3780055E-2,2.3739865E-2,2.0962656E-2,-1.26551315E-2,4.0117256E-2,-0E0],"categories":[],"categories_nodes":[],"categories_segments":[],"categories_sizes":[],"default_left":[0,0,0,0,0,0,0,0,0,0,0,0,0],"id":28,"left_children":[1,3,5,7,9,-1,11,-1,-1,-1,-1,-1,-1],"loss_changes":[5.437786E0,1.223643E1,2.581995E0,9.832473E0,6.104809E0,0E0,2.2938104E0,0E0,0E0,0E0,0E0,0E0,0E0],"parents":[2147483647,0,0,1,1,2,2,3,3,4,4,6,6],"right_children":[2,4,6,8,10,-1,12,-1,-1,-1,-1,-1,-1],"split_conditions":[-4.8108E-2,6.5752E-2,3.40938E-1,1.318334E0,1.045262E0,-4.673015E-3,3.1674E-2,-4.3780055E-2,2.3739865E-2,2.0962656E-2,-1.26551315E-2,4.0117256E-2,-0E0],"split_indices":[3,7,2,2,2,0,1,0,0,0,0,0,0],"split_type":[0,0,0,0,0,0,0,0,0,0,0,0,0],"sum_hessian":[8.255304E1,6.9661736E1,1.2891297E1,2.5748487E1,4.3913254E1,2.619884E0,1.0271414E1,2.347387E1,2.2746174E0,2.6427534E1,1.7485718E1,7.720704E0,2.5507095E0],"tree_param":{"num_deleted":"0","num_feature":"12","num_nodes":"13","size_leaf_vector":"1"}},{"base_weights":[7.6771528E-3,3.9056438E-1,-1.317678E-1,5.377688E-1,-6.1074056E-4,-4.2956743E-1,3.3526167E-1,4.042571E-2,-0E0,3.1956565E-3,-2.910735E-2,2.3867238E-2,-4.254798E-3],"categories":[],"categories_nodes":[],"categories_segments":[],"categories_sizes":[],"default_left":[0,0,0,0,0,0,0,0,0,0,0,0,0],"id":29,"left_children":[1,3,5,7,-1,9,11,-1,-1,-1,-1,-1,-1],"loss_changes":[5.184318E0,2.1306434E0,9.982017E0,2.9003572E0,0E0,3.9983854E0,2.2178686E0,0E0,0E0,0E0,0E0,0E0,0E0],"parents":[2147483647,0,0,1,1,2,2,3,3,5,5,6,6],"right_children":[2,4,6,8,-1,10,12,-1,-1,-1,-1,-1,-1],"split_conditions":[-8.84432E-1,-5.1417E-2,-4.3395E-2,9.0464E-2,-6.1074056E-4,1.1397E-2,1.3596E-2,4.042571E-2,-0E0,3.1956565E-3,-2.910735E-2,2.3867238E-2,-4.254798E-3],"split_indices":[4,10,4,7,0,1,4,0,0,0,0,0,0],"split_type":[0,0,0,0,0,0,0,0,0,0,0,0,0],"sum_hessian":[8.243313E1,2.1517506E1,6.091562E1,1.6349318E1,5.168188E0,3.874944E1,2.216618E1,8.881818E0,7.4674993E0,8.289795E0,3.0459644E1,1.7837946E1,4.3282337E0],"tree_param":{"num_deleted":"0","num_feature":"12","num_nodes":"13","size_leaf_vector":"1"}},{"base_weights":[-0E0,-4.033852E-1,1.5589654E-1,-7.7769786E-1,1.661913E-1,-1.5062532E-1,3.4756833E-1,1.4102543E-4,-4.4751287E-2,1.885114E-2,-9.614308E-3,1.8174365E-2,-2.4535675E-2,3.7881237E-2,9.6928043E-4],"categories":[],"categories_nodes":[],"categories_segments":[],"categories_sizes":[],"default_left":[0,0,0,0,0,0,0,0,0,0,0,0,0,0,0],"id":30,"left_children":[1,3,5,7,9,11,13,-1,-1,-1,-1,-1,-1,-1,-1],"loss_changes":[5.9245768E0,6.9772706E0,4.228093E0,2.56495E0,1.582556E0,5.593811E0,4.935305E0,0E0,0E0,0E0,0E0,0E0,0E0,0E0,0E0],"parents":[2147483647,0,0,1,1,2,2,3,3,4,4,5,5,6,6],"right_children":[2,4,6,8,10,12,14,-1,-1,-1,-1,-1,-1,-1,-1],"split_conditions":[-5.6195E-2,3.5923E-2,-8.71967E-1,-1.632573E0,-4.0428E-2,-2.456787E0,-3.02903E-1,1.4102543E-4,-4.4751287E-2,1.885114E-2,-9.614308E-3,1.8174365E-2,-2.4535675E-2,3.7881237E-2,9.6928043E-4],"split_indices":[6,1,3,3,9,3,3,0,0,0,0,0,0,0,0],"split_type":[0,0,0,0,0,0,0,0,0,0,0,0,0,0,0],"sum_hessian":[8.0985146E1,2.1827106E1,5.915804E1,1.3128237E1,8.698871E0,2.1164782E1,3.799326E1,1.23946E0,1.1888777E1,7.071068E0,1.627803E0,7.1188126E0,1.4045968E1,1.2626695E1,2.5366564E1],"tree_param":{"num_deleted":"0","num_feature":"12","num_nodes":"15","size_leaf_vector":"1"}},{"base_weights":[-3.721556E-2,-1.4620851E-1,3.500233E-1,1.0166463E-1,-4.3402633E-1,-6.333032E-3,5.447198E-1,1.791454E-2,-2.5858477E-2,1.620719E-2,-3.976227E-2,-0E0,3.684636E-2],"categories":[],"categories_nodes":[],"categories_segments":[],"categories_sizes":[],"default_left":[0,0,0,0,0,0,0,0,0,0,0,0,0],"id":31,"left_children":[1,3,5,7,9,-1,11,-1,-1,-1,-1,-1,-1],"loss_changes":[3.6219318E0,5.6572275E0,2.436887E0,7.2191744E0,1.1597517E1,0E0,2.0159664E0,0E0,0E0,0E0,0E0,0E0,0E0],"parents":[2147483647,0,0,1,1,2,2,3,3,4,4,6,6],"right_children":[2,4,6,8,10,-1,12,-1,-1,-1,-1,-1,-1],"split_conditions":[-4.8108E-2,-3.02903E-1,-3.9152E-2,1.6244E-2,-6.1017E-2,-6.333032E-3,3.40938E-1,1.791454E-2,-2.5858477E-2,1.620719E-2,-3.976227E-2,-0E0,3.684636E-2],"split_indices":[3,3,10,11,8,0,2,0,0,0,0,0,0],"split_type":[0,0,0,0,0,0,0,0,0,0,0,0,0],"sum_hessian":[7.9581314E1,6.654577E1,1.303554E1,3.562469E1,3.0921082E1,2.7974498E0,1.023809E1,2.7812218E1,7.812472E0,9.2502775E0,2.1670803E1,3.200032E0,7.0380573E0],"tree_param":{"num_deleted":"0","num_feature":"12","num_nodes":"13","size_leaf_vector":"1"}},{"base_weights":[-1.652203E-2,-1.9824323E-1,4.1722646E-1,2.632181E-2,-5.691435E-1,-1.6612161E-2,6.099746E-1,1.3678551E-2,-2.8141035E-2,-4.0036306E-2,6.6001597E-3,3.7569672E-2,-9.296038E-3],"categories":[],"categories_nodes":[],"categories_segments":[],"categories_sizes":[],"default_left":[0,0,0,0,0,0,0,0,0,0,0,0,0],"id":32,"left_children":[1,3,5,7,9,-1,11,-1,-1,-1,-1,-1,-1],"loss_changes":[6.8714466E0,6.0077E0,4.9020057E0,6.8035364E0,5.4684553E0,0E0,3.8198013E0,0E0,0E0,0E0,0E0,0E0,0E0],"parents":[2147483647,0,0,1,1,2,2,3,3,4,4,6,6],"right_children":[2,4,6,8,10,-1,12,-1,-1,-1,-1,-1,-1],"split_conditions":[-4.3395E-2,-2.08486E-1,3.40938E-1,1.6244E-2,1.7943E-2,-1.6612161E-2,1.2785E-2,1.3678551E-2,-2.8141035E-2,-4.0036306E-2,6.6001597E-3,3.7569672E-2,-9.296038E-3],"split_indices":[4,4,2,11,11,0,0,0,0,0,0,0,0],"split_type":[0,0,0,0,0,0,0,0,0,0,0,0,0],"sum_hessian":[7.970894E1,5.9712376E1,1.9996561E1,3.8407326E1,2.1305054E1,2.289094E0,1.7707468E1,3.0135693E1,8.27163E0,1.6553646E1,4.751408E0,1.6340094E1,1.3673742E0],"tree_param":{"num_deleted":"0","num_feature":"12","num_nodes":"13","size_leaf_vector":"1"}},{"base_weights":[1.7108837E-2,2.189986E-2,-5.0586607E-2,-1.4147885E-1,1.9894717E-2,1.5223938E-2,-1.21864695E-2],"categories":[],"categories_nodes":[],"categories_segments":[],"categories_sizes":[],"default_left":[0,0,0,0,0,0,0],"id":33,"left_children":[1,-1,3,5,-1,-1,-1],"loss_changes":[2.8518622E0,0E0,3.0251327E0,3.353498E0,0E0,0E0,0E0],"parents":[2147483647,0,0,2,2,3,3],"right_children":[2,-1,4,6,-1,-1,-1],"split_conditions":[-7.52145E-1,2.189986E-2,4.4819E-2,4.4902E-2,1.9894717E-2,1.5223938E-2,-1.21864695E-2],"split_indices":[5,0,1,7,0,0,0],"split_type":[0,0,0,0,0,0,0],"sum_hessian":[7.760737E1,9.010034E0,6.8597336E1,6.1737602E1,6.859731E0,7.8465843E0,5.3891018E1],"tree_param":{"num_deleted":"0","num_feature":"12","num_nodes":"7","size_leaf_vector":"1"}},{"base_weights":[4.4926498E-2,-2.3359819E-1,2.45759E-1,2.5466996E-1,-4.9196333E-1,4.0266395E-2,-0E0,2.3741376E-2,-1.0754807E-2,8.644441E-3,-3.2805208E-2,1.2031425E-2,-1.5595818E-2],"categories":[],"categories_nodes":[],"categories_segments":[],"categories_sizes":[],"default_left":[0,0,0,0,0,0,0,0,0,0,0,0,0],"id":34,"left_children":[1,3,5,7,9,-1,11,-1,-1,-1,-1,-1,-1],"loss_changes":[4.8055925E0,5.18187E0,7.64808E0,2.197638E0,3.8255076E0,0E0,3.4115906E0,0E0,0E0,0E0,0E0,0E0,0E0],"parents":[2147483647,0,0,1,1,2,2,3,3,4,4,6,6],"right_children":[2,4,6,8,10,-1,12,-1,-1,-1,-1,-1,-1],"split_conditions":[6.5752E-2,4.6377E-2,7.8003E-2,1.3947E-2,-4.0428E-2,4.0266395E-2,-1.81889E-1,2.3741376E-2,-1.0754807E-2,8.644441E-3,-3.2805208E-2,1.2031425E-2,-1.5595818E-2],"split_indices":[7,7,7,1,9,0,5,0,0,0,0,0,0],"split_type":[0,0,0,0,0,0,0,0,0,0,0,0,0],"sum_hessian":[7.556211E1,2.9229767E1,4.6332344E1,8.800075E0,2.0429693E1,1.157293E1,3.4759415E1,7.404689E0,1.3953857E0,2.7860394E0,1.7643654E1,1.894364E1,1.5815773E1],"tree_param":{"num_deleted":"0","num_feature":"12","num_nodes":"13","size_leaf_vector":"1"}},{"base_weights":[-0E0,3.5709675E-2,-1.2008978E-1,7.4772458E-3,-4.1540757E-1,-1.8025951E-2,1.5092927E-2,1.1448633E-2,-3.1241013E-2],"categories":[],"categories_nodes":[],"categories_segments":[],"categories_sizes":[],"default_left":[0,0,0,0,0,0,0,0,0],"id":35,"left_children":[1,-1,3,5,7,-1,-1,-1,-1],"loss_changes":[7.313479E0,0E0,3.2931118E0,6.5240245E0,4.542929E0,0E0,0E0,0E0,0E0],"parents":[2147483647,0,0,2,2,3,3,4,4],"right_children":[2,-1,4,6,8,-1,-1,-1,-1],"split_conditions":[-1.9033E-2,3.5709675E-2,-2.9841E-2,-6.6172E-2,3.553E-2,-1.8025951E-2,1.5092927E-2,1.1448633E-2,-3.1241013E-2],"split_indices":[0,0,8,10,7,0,0,0,0],"split_type":[0,0,0,0,0,0,0,0,0],"sum_hessian":[7.835744E1,7.184439E0,7.1173E1,5.0741608E1,2.043139E1,2.0542198E1,3.0199408E1,3.7254853E0,1.6705906E1],"tree_param":{"num_deleted":"0","num_feature":"12","num_nodes":"9","size_leaf_vector":"1"}},{"base_weights":[-0E0,-1.8531707E-1,2.7859735E-1,5.637512E-3,-5.893077E-1,-2.6216343E-1,5.2937275E-1,-8.908883E-3,2.9854197E-2,-3.4973964E-2,-0E0,1.4065184E-2,-2.973075E-2,-0E0,3.345517E-2],"categories":[],"categories_nodes":[],"categories_segments":[],"categories_sizes":[],"default_left":[0,0,0,0,0,0,0,0,0,0,0,0,0,0,0],"id":36,"left_children":[1,3,5,7,9,11,13,-1,-1,-1,-1,-1,-1,-1,-1],"loss_changes":[4.3837023E0,4.68889E0,5.4401073E0,5.219138E0,1.6210871E0,3.4161875E0,1.3376527E0,0E0,0E0,0E0,0E0,0E0,0E0,0E0,0E0],"parents":[2147483647,0,0,1,1,2,2,3,3,4,4,5,5,6,6],"right_children":[2,4,6,8,10,12,14,-1,-1,-1,-1,-1,-1,-1,-1],"split_conditions":[-1.70126E-1,-3.02903E-1,1.1652E-2,-4.43408E-1,4.4819E-2,1.2E-2,-7.0667E-2,-8.908883E-3,2.9854197E-2,-3.4973964E-2,-0E0,1.4065184E-2,-2.973075E-2,-0E0,3.345517E-2],"split_indices":[3,3,11,3,1,1,6,0,0,0,0,0,0,0,0],"split_type":[0,0,0,0,0,0,0,0,0,0,0,0,0,0,0],"sum_hessian":[7.602835E1,4.7999786E1,2.8028566E1,3.4260685E1,1.3739104E1,7.5447407E0,2.0483826E1,2.751291E1,6.747773E0,1.1614241E1,2.1248634E0,2.013886E0,5.5308547E0,6.544496E0,1.393933E1],"tree_param":{"num_deleted":"0","num_feature":"12","num_nodes":"15","size_leaf_vector":"1"}},{"base_weights":[2.7132686E-2,-4.581E-1,2.8783154E-1,-6.494819E-1,9.919832E-3,-1.6248575E-1,4.718715E-1,-0E0,-4.776594E-2,1.5921777E-2,-2.6525537E-2,3.52983E-2,-6.085471E-3],"categories":[],"categories_nodes":[],"categories_segments":[],"categories_sizes":[],"default_left":[0,0,0,0,0,0,0,0,0,0,0,0,0],"id":37,"left_children":[1,3,5,7,-1,9,11,-1,-1,-1,-1,-1,-1],"loss_changes":[1.1032295E1,4.8291535E0,5.5516706E0,5.8866224E0,0E0,4.446516E0,7.1940365E0,0E0,0E0,0E0,0E0,0E0,0E0],"parents":[2147483647,0,0,1,1,2,2,3,3,5,5,6,6],"right_children":[2,4,6,8,-1,10,12,-1,-1,-1,-1,-1,-1],"split_conditions":[-5.0248E-2,-3.1477E-2,-3.40743E-1,-5.49647E-1,9.919832E-3,-2.239252E0,1.87802E-1,-0E0,-4.776594E-2,1.5921777E-2,-2.6525537E-2,3.52983E-2,-6.085471E-3],"split_indices":[6,5,5,5,0,3,6,0,0,0,0,0,0],"split_type":[0,0,0,0,0,0,0,0,0,0,0,0,0],"sum_hessian":[7.834639E1,2.4717829E1,5.3628563E1,2.0359339E1,4.358491E0,1.415223E1,3.9476334E1,7.1879063E0,1.31714325E1,5.249239E0,8.902991E0,2.8840378E1,1.0635954E1],"tree_param":{"num_deleted":"0","num_feature":"12","num_nodes":"13","size_leaf_vector":"1"}},{"base_weights":[7.2416656E-2,4.5957884E-1,-6.739774E-2,6.9015414E-1,-1.17697725E-2,-3.6301833E-1,2.0917901E-1,-0E0,3.9256983E-2,-0E0,-4.2245295E-2,-7.071265E-3,2.57273E-2],"categories":[],"categories_nodes":[],"categories_segments":[],"categories_sizes":[],"default_left":[0,0,0,0,0,0,0,0,0,0,0,0,0],"id":38,"left_children":[1,3,5,7,-1,9,11,-1,-1,-1,-1,-1,-1],"loss_changes":[5.0282254E0,5.1931715E0,5.7076635E0,1.6459475E0,0E0,5.210662E0,4.38987E0,0E0,0E0,0E0,0E0,0E0,0E0],"parents":[2147483647,0,0,1,1,2,2,3,3,5,5,6,6],"right_children":[2,4,6,8,-1,10,12,-1,-1,-1,-1,-1,-1],"split_conditions":[-8.84432E-1,-2.2659E-2,-1.10026E-1,6.3511E-2,-1.17697725E-2,-5.8945E-2,1.4642E-2,-0E0,3.9256983E-2,-0E0,-4.2245295E-2,-7.071265E-3,2.57273E-2],"split_indices":[4,9,4,7,0,10,11,0,0,0,0,0,0],"split_type":[0,0,0,0,0,0,0,0,0,0,0,0,0],"sum_hessian":[7.778406E1,1.9500885E1,5.8283176E1,1.5749253E1,3.7516313E0,2.9164001E1,2.9119173E1,2.0467012E0,1.3702552E1,2.0557983E1,8.606019E0,1.3280677E1,1.5838497E1],"tree_param":{"num_deleted":"0","num_feature":"12","num_nodes":"13","size_leaf_vector":"1"}},{"base_weights":[-0E0,-2.638005E-1,2.0371202E-1,1.865801E-2,-4.2393818E-1,-9.320688E-2,4.412794E-1,-4.243685E-2,4.5842986E-4,1.1661305E-2,-1.5067457E-2,3.1316083E-2,-2.8306528E-3],"categories":[],"categories_nodes":[],"categories_segments":[],"categories_sizes":[],"default_left":[0,0,0,0,0,0,0,0,0,0,0,0,0],"id":39,"left_children":[1,3,5,-1,7,9,11,-1,-1,-1,-1,-1,-1],"loss_changes":[4.494427E0,4.626195E0,3.8045256E0,0E0,6.9946833E0,1.9646732E0,3.3584065E0,0E0,0E0,0E0,0E0,0E0,0E0],"parents":[2147483647,0,0,1,1,2,2,4,4,5,5,6,6],"right_children":[2,4,6,-1,8,10,12,-1,-1,-1,-1,-1,-1],"split_conditions":[1.1935E-2,4.6377E-2,-5.3866E-2,1.865801E-2,6.402E-2,-1.53858E-1,2.284E-3,-4.243685E-2,4.5842986E-4,1.1661305E-2,-1.5067457E-2,3.1316083E-2,-2.8306528E-3],"split_indices":[11,7,6,0,7,6,0,0,0,0,0,0,0],"split_type":[0,0,0,0,0,0,0,0,0,0,0,0,0],"sum_hessian":[7.318742E1,3.210176E1,4.108566E1,3.8584816E0,2.824328E1,1.7741175E1,2.3344482E1,1.300167E1,1.5241611E1,4.802447E0,1.2938728E1,1.7543255E1,5.801229E0],"tree_param":{"num_deleted":"0","num_feature":"12","num_nodes":"13","size_leaf_vector":"1"}},{"base_weights":[-5.3692218E-2,-2.8543723E-1,8.2908325E-2,-5.242744E-1,1.568796E-1,6.0853326E-1,-1.4906181E-1,-3.4036126E-2,9.380939E-4,2.0254098E-2,-6.656053E-3,-0E0,4.1504797E-2,1.5564719E-2,-1.4474166E-2],"categories":[],"categories_nodes":[],"categories_segments":[],"categories_sizes":[],"default_left":[0,0,0,0,0,0,0,0,0,0,0,0,0,0,0],"id":40,"left_children":[1,3,5,7,9,11,13,-1,-1,-1,-1,-1,-1,-1,-1],"loss_changes":[2.8544455E0,4.3198204E0,7.193974E0,2.7976503E0,1.5589277E0,1.6326537E0,2.913442E0,0E0,0E0,0E0,0E0,0E0,0E0,0E0,0E0],"parents":[2147483647,0,0,1,1,2,2,3,3,4,4,5,5,6,6],"right_children":[2,4,6,8,10,12,14,-1,-1,-1,-1,-1,-1,-1,-1],"split_conditions":[6.5752E-2,-1.23868E-1,7.8117E-2,6.0275E-2,-2.1624E-2,-4.4958E-2,-7.8511E-2,-3.4036126E-2,9.380939E-4,2.0254098E-2,-6.656053E-3,-0E0,4.1504797E-2,1.5564719E-2,-1.4474166E-2],"split_indices":[7,3,7,5,3,8,8,0,0,0,0,0,0,0,0],"split_type":[0,0,0,0,0,0,0,0,0,0,0,0,0,0,0],"sum_hessian":[7.503383E1,2.8520716E1,4.6513115E1,1.938681E1,9.133904E0,1.30766945E1,3.3436424E1,1.5496144E1,3.890667E0,5.710543E0,3.4233608E0,5.9925637E0,7.0841303E0,4.7285843E0,2.8707838E1],"tree_param":{"num_deleted":"0","num_feature":"12","num_nodes":"15","size_leaf_vector":"1"}},{"base_weights":[-0E0,1.3330355E-1,-2.8833398E-1,-5.4232925E-2,4.1550305E-1,1.8812856E-2,-5.104409E-1,-2.0045957E-2,3.81386E-2,4.0723037E-2,-5.429375E-4,-4.827003E-2,-0E0],"categories":[],"categories_nodes":[],"categories_segments":[],"categories_sizes":[],"default_left":[0,0,0,0,0,0,0,0,0,0,0,0,0],"id":41,"left_children":[1,3,5,7,9,-1,11,-1,-1,-1,-1,-1,-1],"loss_changes":[3.4456913E0,3.452169E0,5.436837E0,1.1392825E1,5.129804E0,0E0,6.3913198E0,0E0,0E0,0E0,0E0,0E0,0E0],"parents":[2147483647,0,0,1,1,2,2,3,3,4,4,6,6],"right_children":[2,4,6,8,10,-1,12,-1,-1,-1,-1,-1,-1],"split_conditions":[9.0464E-2,6.5752E-2,5.82179E-1,1.318334E0,-3.02903E-1,1.8812856E-2,1.22103E-1,-2.0045957E-2,3.81386E-2,4.0723037E-2,-5.429375E-4,-4.827003E-2,-0E0],"split_indices":[7,7,2,2,3,0,7,0,0,0,0,0,0],"split_type":[0,0,0,0,0,0,0,0,0,0,0,0,0],"sum_hessian":[7.569287E1,5.1275074E1,2.4417795E1,3.1101797E1,2.0173277E1,4.1193395E0,2.0298456E1,2.4483088E1,6.6187105E0,9.282007E0,1.0891271E1,8.930099E0,1.1368358E1],"tree_param":{"num_deleted":"0","num_feature":"12","num_nodes":"13","size_leaf_vector":"1"}},{"base_weights":[9.564325E-2,3.1286348E-2,-0E0,-3.8161048E-1,1.922656E-1,4.993424E-3,-3.0442713E-2,2.2941073E-2,-1.31122535E-2],"categories":[],"categories_nodes":[],"categories_segments":[],"categories_sizes":[],"default_left":[0,0,0,0,0,0,0,0,0],"id":42,"left_children":[1,-1,3,5,7,-1,-1,-1,-1],"loss_changes":[4.067198E0,0E0,5.6533294E0,3.646685E0,6.9655037E0,0E0,0E0,0E0,0E0],"parents":[2147483647,0,0,2,2,3,3,4,4],"right_children":[2,-1,4,6,8,-1,-1,-1,-1],"split_conditions":[-1.9033E-2,3.1286348E-2,-6.6172E-2,-8.9026E-2,-3.0629E-2,4.993424E-3,-3.0442713E-2,2.2941073E-2,-1.31122535E-2],"split_indices":[0,0,10,10,8,0,0,0,0],"split_type":[0,0,0,0,0,0,0,0,0],"sum_hessian":[7.403866E1,7.2344713E0,6.6804184E1,2.0898844E1,4.5905342E1,6.188608E0,1.4710236E1,3.0292507E1,1.5612834E1],"tree_param":{"num_deleted":"0","num_feature":"12","num_nodes":"9","size_leaf_vector":"1"}},{"base_weights":[2.2097379E-2,4.0270105E-1,-7.810023E-2,3.0977711E-2,-9.957192E-3,-2.186595E-1,3.0805093E-1,5.463241E-3,-1.869559E-2,-5.216812E-3,2.4796968E-2],"categories":[],"categories_nodes":[],"categories_segments":[],"categories_sizes":[],"default_left":[0,0,0,0,0,0,0,0,0,0,0],"id":43,"left_children":[1,3,5,-1,-1,7,9,-1,-1,-1,-1],"loss_changes":[3.5576124E0,3.6083915E0,3.8271534E0,0E0,0E0,3.1761503E0,2.0277817E0,0E0,0E0,0E0,0E0],"parents":[2147483647,0,0,1,1,2,2,5,5,6,6],"right_children":[2,4,6,-1,-1,8,10,-1,-1,-1,-1],"split_conditions":[1.1397E-2,-4.8273E-2,1.8496E-2,3.0977711E-2,-9.957192E-3,5.82179E-1,-7.0192E-2,5.463241E-3,-1.869559E-2,-5.216812E-3,2.4796968E-2],"split_indices":[1,10,11,0,0,2,10,0,0,0,0],"split_type":[0,0,0,0,0,0,0,0,0,0,0],"sum_hessian":[7.5653206E1,1.4699946E1,6.095326E1,1.1919585E1,2.7803612E0,4.8175674E1,1.2777587E1,1.3885854E1,3.4289818E1,3.0294776E0,9.748109E0],"tree_param":{"num_deleted":"0","num_feature":"12","num_nodes":"11","size_leaf_vector":"1"}},{"base_weights":[1.0191523E-1,4.1408637E-1,-2.358263E-2,-0E0,3.4414086E-2,-4.0139088E-1,1.4128415E-1,-1.7780012E-2,1.4108329E-2,1.0912039E-2,-3.7819717E-2,-6.2241177E-3,2.3656867E-2],"categories":[],"categories_nodes":[],"categories_segments":[],"categories_sizes":[],"default_left":[0,0,0,0,0,0,0,0,0,0,0,0,0],"id":44,"left_children":[1,3,5,7,-1,9,11,-1,-1,-1,-1,-1,-1],"loss_changes":[3.357606E0,3.34407E0,4.0053954E0,1.8931644E0,0E0,5.769287E0,4.2192507E0,0E0,0E0,0E0,0E0,0E0,0E0],"parents":[2147483647,0,0,1,1,2,2,3,3,5,5,6,6],"right_children":[2,4,6,8,-1,10,12,-1,-1,-1,-1,-1,-1],"split_conditions":[-8.379E-3,-2.3506E-2,-6.3769E-2,-1.18595E-1,3.4414086E-2,-9.056E-2,9.0063E-2,-1.7780012E-2,1.4108329E-2,1.0912039E-2,-3.7819717E-2,-6.2241177E-3,2.3656867E-2],"split_indices":[0,6,10,3,0,10,6,0,0,0,0,0,0],"split_type":[0,0,0,0,0,0,0,0,0,0,0,0,0],"sum_hessian":[6.9489876E1,1.8913582E1,5.0576294E1,8.199049E0,1.0714534E1,1.5028754E1,3.554754E1,4.4845023E0,3.7145467E0,5.1496944E0,9.87906E0,1.9800919E1,1.574662E1],"tree_param":{"num_deleted":"0","num_feature":"12","num_nodes":"13","size_leaf_vector":"1"}},{"base_weights":[1.2234367E-2,-1.1758104E-1,3.8795292E-1,9.306592E-2,-4.4980344E-1,-8.599874E-3,5.6800336E-1,1.6814886E-2,-2.1727433E-2,-3.097243E-2,1.2873935E-2,3.5917345E-2,-0E0],"categories":[],"categories_nodes":[],"categories_segments":[],"categories_sizes":[],"default_left":[0,0,0,0,0,0,0,0,0,0,0,0,0],"id":45,"left_children":[1,3,5,7,9,-1,11,-1,-1,-1,-1,-1,-1],"loss_changes":[4.285331E0,4.7343483E0,3.211234E0,5.605548E0,4.25644E0,0E0,1.9074435E0,0E0,0E0,0E0,0E0,0E0,0E0],"parents":[2147483647,0,0,1,1,2,2,3,3,4,4,6,6],"right_children":[2,4,6,8,10,-1,12,-1,-1,-1,-1,-1,-1],"split_conditions":[-4.3395E-2,-3.02903E-1,3.40938E-1,1.6244E-2,1.16972E-1,-8.599874E-3,1.3596E-2,1.6814886E-2,-2.1727433E-2,-3.097243E-2,1.2873935E-2,3.5917345E-2,-0E0],"split_indices":[4,3,2,11,7,0,4,0,0,0,0,0,0],"split_type":[0,0,0,0,0,0,0,0,0,0,0,0,0],"sum_hessian":[7.2641266E1,5.4562817E1,1.8078444E1,3.3751717E1,2.0811102E1,3.101749E0,1.4976695E1,2.5639975E1,8.111742E0,1.8426256E1,2.384845E0,1.1186277E1,3.7904172E0],"tree_param":{"num_deleted":"0","num_feature":"12","num_nodes":"13","size_leaf_vector":"1"}},{"base_weights":[9.109732E-3,-6.374211E-2,2.0225197E-2,1.2388317E-1,-3.2007068E-1,-1.9729981E-2,1.5988238E-2,-2.9406106E-2,2.2638894E-3],"categories":[],"categories_nodes":[],"categories_segments":[],"categories_sizes":[],"default_left":[0,0,0,0,0,0,0,0,0],"id":46,"left_children":[1,3,-1,5,7,-1,-1,-1,-1],"loss_changes":[2.7864854E0,3.7658203E0,0E0,4.804007E0,3.9345512E0,0E0,0E0,0E0,0E0],"parents":[2147483647,0,0,1,1,3,3,4,4],"right_children":[2,4,-1,6,8,-1,-1,-1,-1],"split_conditions":[3.5923E-2,-5.0527E-2,2.0225197E-2,-5.5238E-2,1.226063E0,-1.9729981E-2,1.5988238E-2,-2.9406106E-2,2.2638894E-3],"split_indices":[1,10,0,9,2,0,0,0,0],"split_type":[0,0,0,0,0,0,0,0,0],"sum_hessian":[7.543008E1,6.510012E1,1.0329952E1,3.682646E1,2.8273664E1,7.3072443E0,2.9519217E1,1.6128628E1,1.2145037E1],"tree_param":{"num_deleted":"0","num_feature":"12","num_nodes":"9","size_leaf_vector":"1"}},{"base_weights":[-0E0,2.6601455E-1,-2.7863345E-1,4.9549276E-1,-1.644495E-1,-5.444972E-1,1.52763175E-2,3.5777625E-2,-4.74005E-3,7.297948E-3,-1.6393293E-2,-3.3443447E-2,-0E0],"categories":[],"categories_nodes":[],"categories_segments":[],"categories_sizes":[],"default_left":[0,0,0,0,0,0,0,0,0,0,0,0,0],"id":47,"left_children":[1,3,5,7,9,11,-1,-1,-1,-1,-1,-1,-1],"loss_changes":[6.350542E0,5.141401E0,7.4650364E0,5.0952373E0,1.3209383E0,2.6845856E0,0E0,0E0,0E0,0E0,0E0,0E0,0E0],"parents":[2147483647,0,0,1,1,2,2,3,3,4,4,5,5],"right_children":[2,4,6,8,10,12,-1,-1,-1,-1,-1,-1,-1],"split_conditions":[-5.1417E-2,1.6244E-2,1.5602E-2,-3.56132E-1,-1.324329E0,-2.8667E-2,1.52763175E-2,3.5777625E-2,-4.74005E-3,7.297948E-3,-1.6393293E-2,-3.3443447E-2,-0E0],"split_indices":[10,11,11,3,3,10,0,0,0,0,0,0,0],"split_type":[0,0,0,0,0,0,0,0,0,0,0,0,0],"sum_hessian":[7.57441E1,3.9572243E1,3.6171856E1,2.6834597E1,1.2737647E1,2.6268047E1,9.9038105E0,2.0008554E1,6.8260417E0,2.466791E0,1.0270856E1,2.1721567E1,4.546479E0],"tree_param":{"num_deleted":"0","num_feature":"12","num_nodes":"13","size_leaf_vector":"1"}},{"base_weights":[-3.9427385E-2,1.9459765E-1,-2.7314687E-1,-4.6703205E-2,5.287537E-1,-5.110664E-1,1.1319911E-1,1.214819E-2,-3.3507813E-2,3.3455636E-2,-4.801718E-3,-3.434267E-2,1.2567468E-2,-7.961473E-3,1.6148439E-2],"categories":[],"categories_nodes":[],"categories_segments":[],"categories_sizes":[],"default_left":[0,0,0,0,0,0,0,0,0,0,0,0,0,0,0],"id":48,"left_children":[1,3,5,7,9,11,13,-1,-1,-1,-1,-1,-1,-1,-1],"loss_changes":[4.561138E0,3.7747188E0,4.620438E0,5.878906E0,2.5276518E0,5.184161E0,1.4952326E0,0E0,0E0,0E0,0E0,0E0,0E0,0E0,0E0],"parents":[2147483647,0,0,1,1,2,2,3,3,4,4,5,5,6,6],"right_children":[2,4,6,8,10,12,14,-1,-1,-1,-1,-1,-1,-1,-1],"split_conditions":[-3.02903E-1,-8.71967E-1,1.7943E-2,-1.009199E0,1.7457E-2,-1.939E-3,-4.8233E-2,1.214819E-2,-3.3507813E-2,3.3455636E-2,-4.801718E-3,-3.434267E-2,1.2567468E-2,-7.961473E-3,1.6148439E-2],"split_indices":[3,3,11,4,11,4,10,0,0,0,0,0,0,0,0],"split_type":[0,0,0,0,0,0,0,0,0,0,0,0,0,0,0],"sum_hessian":[7.20953E1,3.4304375E1,3.779092E1,2.0679705E1,1.3624671E1,2.399102E1,1.3799899E1,1.510784E1,5.5718656E0,1.2142643E1,1.4820278E0,2.0964493E1,3.0265276E0,4.4535646E0,9.3463335E0],"tree_param":{"num_deleted":"0","num_feature":"12","num_nodes":"15","size_leaf_vector":"1"}},{"base_weights":[7.4014254E-2,-0E0,3.9201027E-1,-4.273328E-1,1.7454277E-1,-9.273374E-3,3.339116E-2,-3.329934E-2,2.0561585E-2,2.3530932E-2,-1.640544E-2],"categories":[],"categories_nodes":[],"categories_segments":[],"categories_sizes":[],"default_left":[0,0,0,0,0,0,0,0,0,0,0],"id":49,"left_children":[1,3,5,7,9,-1,-1,-1,-1,-1,-1],"loss_changes":[2.204953E0,5.7490153E0,3.8523839E0,6.1929812E0,8.63288E0,0E0,0E0,0E0,0E0,0E0,0E0],"parents":[2147483647,0,0,1,1,2,2,3,3,4,4],"right_children":[2,4,6,8,10,-1,-1,-1,-1,-1,-1],"split_conditions":[-4.8108E-2,6.402E-2,3.40938E-1,1.318334E0,1.367365E0,-9.273374E-3,3.339116E-2,-3.329934E-2,2.0561585E-2,2.3530932E-2,-1.640544E-2],"split_indices":[3,7,2,2,2,0,0,0,0,0,0],"split_type":[0,0,0,0,0,0,0,0,0,0,0],"sum_hessian":[7.696228E1,6.4692055E1,1.2270229E1,1.782978E1,4.6862274E1,3.323622E0,8.946608E0,1.5609005E1,2.220776E0,3.0943672E1,1.59186E1],"tree_param":{"num_deleted":"0","num_feature":"12","num_nodes":"11","size_leaf_vector":"1"}},{"base_weights":[-5.0142303E-2,2.8117114E-1,-1.7484115E-1,-0E0,2.8305227E-2,-5.9701955E-1,-0E0,-1.20946625E-2,1.09851165E-2,1.8123685E-3,-3.5917852E-2,-1.9919617E-2,1.2204333E-2],"categories":[],"categories_nodes":[],"categories_segments":[],"categories_sizes":[],"default_left":[0,0,0,0,0,0,0,0,0,0,0,0,0],"id":50,"left_children":[1,3,5,7,-1,9,11,-1,-1,-1,-1,-1,-1],"loss_changes":[3.33666E0,2.0688121E0,5.104518E0,1.0400331E0,0E0,2.3180213E0,4.9013653E0,0E0,0E0,0E0,0E0,0E0,0E0],"parents":[2147483647,0,0,1,1,2,2,3,3,5,5,6,6],"right_children":[2,4,6,8,-1,10,12,-1,-1,-1,-1,-1,-1],"split_conditions":[-9.516E-3,-1.02804E-1,-3.902E-3,-8.9947E-2,2.8305227E-2,-1.544913E0,-6.3769E-2,-1.20946625E-2,1.09851165E-2,1.8123685E-3,-3.5917852E-2,-1.9919617E-2,1.2204333E-2],"split_indices":[0,6,0,4,0,4,10,0,0,0,0,0,0],"split_type":[0,0,0,0,0,0,0,0,0,0,0,0,0],"sum_hessian":[7.2386765E1,1.5885942E1,5.6500824E1,9.278161E0,6.607782E0,1.459576E1,4.1905064E1,5.6893363E0,3.588824E0,1.5855503E0,1.301021E1,1.3246754E1,2.8658312E1],"tree_param":{"num_deleted":"0","num_feature":"12","num_nodes":"13","size_leaf_vector":"1"}},{"base_weights":[-0E0,-8.486744E-2,2.4214521E-1,2.4164829E-1,-2.875082E-1,-1.1816943E-2,4.4844377E-1,2.115894E-2,-4.0676193E-3,1.1977009E-2,-1.9940654E-2,3.341369E-2,-4.968213E-3],"categories":[],"categories_nodes":[],"categories_segments":[],"categories_sizes":[],"default_left":[0,0,0,0,0,0,0,0,0,0,0,0,0],"id":51,"left_children":[1,3,5,7,9,-1,11,-1,-1,-1,-1,-1,-1],"loss_changes":[1.8966928E0,4.3599396E0,3.2081718E0,1.9085946E0,3.0518572E0,0E0,3.3868427E0,0E0,0E0,0E0,0E0,0E0,0E0],"parents":[2147483647,0,0,1,1,2,2,3,3,4,4,6,6],"right_children":[2,4,6,8,10,-1,12,-1,-1,-1,-1,-1,-1],"split_conditions":[-4.3395E-2,-8.84432E-1,3.40938E-1,-5.1417E-2,2.99257E-1,-1.1816943E-2,1.3596E-2,2.115894E-2,-4.0676193E-3,1.1977009E-2,-1.9940654E-2,3.341369E-2,-4.968213E-3],"split_indices":[4,4,2,10,2,0,4,0,0,0,0,0,0],"split_type":[0,0,0,0,0,0,0,0,0,0,0,0,0],"sum_hessian":[7.493486E1,5.4951286E1,1.9983578E1,1.8785242E1,3.6166042E1,4.3406205E0,1.5642957E1,1.3015558E1,5.7696824E0,3.7350492E0,3.2430996E1,1.1681297E1,3.9616592E0],"tree_param":{"num_deleted":"0","num_feature":"12","num_nodes":"13","size_leaf_vector":"1"}},{"base_weights":[1.3728036E-2,2.232325E-1,-2.2323142E-1,3.5863823E-1,-6.738551E-2,1.1762461E-2,-3.6182827E-1,2.6862865E-2,-2.1413923E-4,-2.3001492E-2,5.7254015E-3,-2.5154192E-2,9.471082E-3],"categories":[],"categories_nodes":[],"categories_segments":[],"categories_sizes":[],"default_left":[0,0,0,0,0,0,0,0,0,0,0,0,0],"id":52,"left_children":[1,3,5,7,9,-1,11,-1,-1,-1,-1,-1,-1],"loss_changes":[3.931664E0,2.1478603E0,2.7805667E0,2.6984806E0,1.7431537E0,0E0,3.1707683E0,0E0,0E0,0E0,0E0,0E0,0E0],"parents":[2147483647,0,0,1,1,2,2,3,3,4,4,6,6],"right_children":[2,4,6,8,10,-1,12,-1,-1,-1,-1,-1,-1],"split_conditions":[-3.5064E-2,1.7457E-2,8.867E-3,-2.3411E-1,-2.47868E-1,1.1762461E-2,1.7523E-2,2.6862865E-2,-2.1413923E-4,-2.3001492E-2,5.7254015E-3,-2.5154192E-2,9.471082E-3],"split_indices":[9,11,11,3,3,0,11,0,0,0,0,0,0],"split_type":[0,0,0,0,0,0,0,0,0,0,0,0,0],"sum_hessian":[6.9178055E1,3.9109608E1,3.0068447E1,2.8228136E1,1.0881473E1,4.495448E0,2.5573E1,1.9154448E1,9.073688E0,2.7649844E0,8.116488E0,2.2148481E1,3.4245172E0],"tree_param":{"num_deleted":"0","num_feature":"12","num_nodes":"13","size_leaf_vector":"1"}},{"base_weights":[-0E0,1.07464574E-1,-3.5260803E-1,3.4535387E-1,-1.2632671E-1,-5.210102E-1,-0E0,-1.5480868E-3,3.2079536E-2,-2.5152309E-2,1.7119471E-2,-3.3019375E-2,-0E0],"categories":[],"categories_nodes":[],"categories_segments":[],"categories_sizes":[],"default_left":[0,0,0,0,0,0,0,0,0,0,0,0,0],"id":53,"left_children":[1,3,5,7,9,11,-1,-1,-1,-1,-1,-1,-1],"loss_changes":[3.014645E0,4.139271E0,1.4360042E0,4.773625E0,7.2218065E0,1.168014E0,0E0,0E0,0E0,0E0,0E0,0E0,0E0],"parents":[2147483647,0,0,1,1,2,2,3,3,4,4,5,5],"right_children":[2,4,6,8,10,12,-1,-1,-1,-1,-1,-1,-1],"split_conditions":[6.091E-3,-5.5493E-2,3.5923E-2,-7.0192E-2,-4.3395E-2,1.44024E0,-0E0,-1.5480868E-3,3.2079536E-2,-2.5152309E-2,1.7119471E-2,-3.3019375E-2,-0E0],"split_indices":[0,10,1,10,4,2,0,0,0,0,0,0,0],"split_type":[0,0,0,0,0,0,0,0,0,0,0,0,0],"sum_hessian":[7.4628716E1,6.1564957E1,1.3063758E1,3.1452507E1,3.0112448E1,8.563797E0,4.4999614E0,1.4339055E1,1.7113453E1,1.7674368E1,1.2438079E1,6.120843E0,2.442954E0],"tree_param":{"num_deleted":"0","num_feature":"12","num_nodes":"13","size_leaf_vector":"1"}},{"base_weights":[-0E0,9.919316E-2,-3.0705062E-1,-2.66116E-1,2.3787317E-1,4.5781424E-3,-2.4779273E-2,-2.5186447E-2,7.885517E-3,-8.474386E-3,1.945154E-2],"categories":[],"categories_nodes":[],"categories_segments":[],"categories_sizes":[],"default_left":[0,0,0,0,0,0,0,0,0,0,0],"id":54,"left_children":[1,3,5,7,9,-1,-1,-1,-1,-1,-1],"loss_changes":[2.3636284E0,3.5060437E0,2.0168447E0,2.541153E0,3.668817E0,0E0,0E0,0E0,0E0,0E0,0E0],"parents":[2147483647,0,0,1,1,2,2,3,3,4,4],"right_children":[2,4,6,8,10,-1,-1,-1,-1,-1,-1],"split_conditions":[6.091E-3,-8.4143E-2,-6.9571E-2,-5.1151E-2,-3.54148E-1,4.5781424E-3,-2.4779273E-2,-2.5186447E-2,7.885517E-3,-8.474386E-3,1.945154E-2],"split_indices":[0,6,8,3,5,0,0,0,0,0,0],"split_type":[0,0,0,0,0,0,0,0,0,0,0],"sum_hessian":[7.1957405E1,5.851577E1,1.3441634E1,1.2853028E1,4.5662743E1,3.438785E0,1.0002849E1,9.143604E0,3.7094245E0,1.0403632E1,3.525911E1],"tree_param":{"num_deleted":"0","num_feature":"12","num_nodes":"11","size_leaf_vector":"1"}},{"base_weights":[2.0306604E-2,-1.087572E-1,4.7148964E-1,5.1221754E-2,-4.7303167E-1,3.3783972E-2,-1.384565E-2,1.2404495E-2,-1.8627925E-2,-2.9741341E-2,2.2033032E-3],"categories":[],"categories_nodes":[],"categories_segments":[],"categories_sizes":[],"default_left":[0,0,0,0,0,0,0,0,0,0,0],"id":55,"left_children":[1,3,5,7,9,-1,-1,-1,-1,-1,-1],"loss_changes":[5.1519876E0,4.20663E0,4.386786E0,4.1993423E0,2.040948E0,0E0,0E0,0E0,0E0,0E0,0E0],"parents":[2147483647,0,0,1,1,2,2,3,3,4,4],"right_children":[2,4,6,8,10,-1,-1,-1,-1,-1,-1],"split_conditions":[-3.5521E-2,-2.83299E-1,1.2785E-2,-2.6233E-2,1.16972E-1,3.3783972E-2,-1.384565E-2,1.2404495E-2,-1.8627925E-2,-2.9741341E-2,2.2033032E-3],"split_indices":[4,3,0,9,7,0,0,0,0,0,0],"split_type":[0,0,0,0,0,0,0,0,0,0,0],"sum_hessian":[7.28423E1,5.7867336E1,1.4974963E1,4.128701E1,1.6580324E1,1.3196533E1,1.77843E0,3.1217468E1,1.0069543E1,1.4376437E1,2.2038875E0],"tree_param":{"num_deleted":"0","num_feature":"12","num_nodes":"11","size_leaf_vector":"1"}},{"base_weights":[7.756484E-2,2.5808439E-2,-0E0,-1.9427216E-1,1.6425759E-1,7.0711635E-3,-1.8323125E-2,1.3303396E-2,-1.3204298E-2],"categories":[],"categories_nodes":[],"categories_segments":[],"categories_sizes":[],"default_left":[0,0,0,0,0,0,0,0,0],"id":56,"left_children":[1,-1,3,5,7,-1,-1,-1,-1],"loss_changes":[2.4649446E0,0E0,2.3344207E0,2.4058933E0,2.0984206E0,0E0,0E0,0E0,0E0],"parents":[2147483647,0,0,2,2,3,3,4,4],"right_children":[2,-1,4,6,8,-1,-1,-1,-1],"split_conditions":[-1.9033E-2,2.5808439E-2,6.98829E-1,4.90701E-1,1.997999E0,7.0711635E-3,-1.8323125E-2,1.3303396E-2,-1.3204298E-2],"split_indices":[0,0,2,2,2,0,0,0,0],"split_type":[0,0,0,0,0,0,0,0,0],"sum_hessian":[6.9189384E1,5.927029E0,6.3262356E1,2.8245779E1,3.5016575E1,7.910215E0,2.0335566E1,3.1708723E1,3.3078525E0],"tree_param":{"num_deleted":"0","num_feature":"12","num_nodes":"9","size_leaf_vector":"1"}},{"base_weights":[1.0687122E-1,2.1677122E-1,-2.4543539E-1,-2.249482E-1,3.4638426E-1,-2.322152E-2,-0E0,1.3509944E-2,-2.5661523E-2,3.509545E-2,1.8395083E-3],"categories":[],"categories_nodes":[],"categories_segments":[],"categories_sizes":[],"default_left":[0,0,0,0,0,0,0,0,0,0,0],"id":57,"left_children":[1,3,5,7,9,-1,-1,-1,-1,-1,-1],"loss_changes":[3.32659E0,4.268776E0,1.2570547E0,3.244684E0,5.1268954E0,0E0,0E0,0E0,0E0,0E0,0E0],"parents":[2147483647,0,0,1,1,2,2,3,3,4,4],"right_children":[2,4,6,8,10,-1,-1,-1,-1,-1,-1],"split_conditions":[6.091E-3,-7.0192E-2,1.7865E-2,-8.9026E-2,-5.1417E-2,-2.322152E-2,-0E0,1.3509944E-2,-2.5661523E-2,3.509545E-2,1.8395083E-3],"split_indices":[0,10,11,10,10,0,0,0,0,0,0],"split_type":[0,0,0,0,0,0,0,0,0,0,0],"sum_hessian":[7.478714E1,6.0634525E1,1.4152609E1,1.1170991E1,4.9463535E1,6.176769E0,7.9758406E0,2.949615E0,8.221376E0,1.8571184E1,3.0892351E1],"tree_param":{"num_deleted":"0","num_feature":"12","num_nodes":"11","size_leaf_vector":"1"}},{"base_weights":[2.0017938E-3,3.0414712E-1,-1.03377275E-1,-9.088758E-3,4.2121732E-1,2.052028E-2,-2.3112738E-1,-1.2066179E-3,2.7369563E-2,-3.3858772E-2,-5.786933E-4],"categories":[],"categories_nodes":[],"categories_segments":[],"categories_sizes":[],"default_left":[0,0,0,0,0,0,0,0,0,0,0],"id":58,"left_children":[1,3,5,-1,7,-1,9,-1,-1,-1,-1],"loss_changes":[2.6735258E0,1.9038081E0,3.9179184E0,0E0,1.7872901E0,0E0,4.067087E0,0E0,0E0,0E0,0E0],"parents":[2147483647,0,0,1,1,2,2,4,4,6,6],"right_children":[2,4,6,-1,8,-1,10,-1,-1,-1,-1],"split_conditions":[-8.379E-3,-9.24567E-1,-2.239252E0,-9.088758E-3,1.1523E-2,2.052028E-2,-3.902E-3,-1.2066179E-3,2.7369563E-2,-3.3858772E-2,-5.786933E-4],"split_indices":[0,5,3,0,11,0,0,0,0,0,0],"split_type":[0,0,0,0,0,0,0,0,0,0,0],"sum_hessian":[6.772492E1,1.752766E1,5.019726E1,1.2080452E0,1.6319614E1,6.2341733E0,4.396309E1,2.7458498E0,1.3573766E1,9.561487E0,3.44016E1],"tree_param":{"num_deleted":"0","num_feature":"12","num_nodes":"11","size_leaf_vector":"1"}},{"base_weights":[-1.6341559E-4,-9.1588885E-2,3.0281433E-1,-4.143203E-1,3.9706368E-2,-4.322644E-3,4.888001E-1,-2.8850866E-2,1.0346802E-2,1.3737748E-2,-1.6838646E-2,3.30015E-2,-3.9884425E-3],"categories":[],"categories_nodes":[],"categories_segments":[],"categories_sizes":[],"default_left":[0,0,0,0,0,0,0,0,0,0,0,0,0],"id":59,"left_children":[1,3,5,7,9,-1,11,-1,-1,-1,-1,-1,-1],"loss_changes":[2.0562942E0,3.2286253E0,1.8039321E0,3.1459074E0,4.724049E0,0E0,2.169032E0,0E0,0E0,0E0,0E0,0E0,0E0],"parents":[2147483647,0,0,1,1,2,2,3,3,4,4,6,6],"right_children":[2,4,6,8,10,-1,12,-1,-1,-1,-1,-1,-1],"split_conditions":[-4.8108E-2,6.402E-2,3.40938E-1,1.318334E0,1.367365E0,-4.322644E-3,1.2896E-2,-2.8850866E-2,1.0346802E-2,1.3737748E-2,-1.6838646E-2,3.30015E-2,-3.9884425E-3],"split_indices":[3,7,2,2,2,0,4,0,0,0,0,0,0],"split_type":[0,0,0,0,0,0,0,0,0,0,0,0,0],"sum_hessian":[7.185403E1,6.0413086E1,1.144094E1,1.6555914E1,4.385717E1,2.8257418E0,8.615198E0,1.4677737E1,1.878177E0,2.9467075E1,1.4390096E1,7.3547416E0,1.260457E0],"tree_param":{"num_deleted":"0","num_feature":"12","num_nodes":"13","size_leaf_vector":"1"}},{"base_weights":[-2.5996568E-2,1.2137333E-1,-2.1100157E-1,-1.19863786E-1,3.7689224E-1,-4.4091526E-1,1.2113075E-1,1.0956249E-2,-2.801252E-2,2.8646177E-2,-1.5519175E-2,-3.0637681E-2,-0E0,-6.0813753E-3,1.6669547E-2],"categories":[],"categories_nodes":[],"categories_segments":[],"categories_sizes":[],"default_left":[0,0,0,0,0,0,0,0,0,0,0,0,0,0,0],"id":60,"left_children":[1,3,5,7,9,11,13,-1,-1,-1,-1,-1,-1,-1,-1],"loss_changes":[2.3098757E0,3.126E0,3.5541644E0,4.513392E0,4.3908796E0,1.9034643E0,1.3440261E0,0E0,0E0,0E0,0E0,0E0,0E0,0E0,0E0],"parents":[2147483647,0,0,1,1,2,2,3,3,4,4,5,5,6,6],"right_children":[2,4,6,8,10,12,14,-1,-1,-1,-1,-1,-1,-1,-1],"split_conditions":[-5.8945E-2,-7.0192E-2,1.07763E-1,-8.1935E-2,6.091E-3,1.5602E-2,-2.63813E-1,1.0956249E-2,-2.801252E-2,2.8646177E-2,-1.5519175E-2,-3.0637681E-2,-0E0,-6.0813753E-3,1.6669547E-2],"split_indices":[10,10,6,10,0,11,3,0,0,0,0,0,0,0,0],"split_type":[0,0,0,0,0,0,0,0,0,0,0,0,0,0,0],"sum_hessian":[7.173801E1,3.787906E1,3.3858948E1,1.8836391E1,1.9042665E1,2.0819891E1,1.3039057E1,1.0779919E1,8.056474E0,1.6595955E1,2.4467115E0,1.3438403E1,7.3814874E0,4.8807607E0,8.158296E0],"tree_param":{"num_deleted":"0","num_feature":"12","num_nodes":"15","size_leaf_vector":"1"}}]},"name":"gbtree"},"learner_model_param":{"base_score":"[5E-1]","boost_from_average":"1","num_class":"0","num_feature":"12","num_target":"1"},"objective":{"name":"binary:logistic","reg_loss_param":{"scale_pos_weight":"1.16194332"}}},"version":[3,2,0]}